booster[0]:
0:[f1<-1.00136e-05] yes=1,no=2,missing=1
	1:[f2<13] yes=3,no=4,missing=3
		3:[f3<2.5] yes=7,no=8,missing=7
			7:leaf=0.152
			8:leaf=-0.14
		4:[f5<26.2687] yes=9,no=10,missing=9
			9:[f6<1.5] yes=13,no=14,missing=14
				13:[f5<15.1479] yes=21,no=22,missing=22
					21:[f2<22.5] yes=31,no=32,missing=31
						31:leaf=-0.04
						32:leaf=-0.145946
					22:leaf=0.04
				14:leaf=-0.162117
			10:[f5<26.775] yes=15,no=16,missing=16
				15:[f2<53.5] yes=23,no=24,missing=23
					23:leaf=0.105882
					24:leaf=-0.111111
				16:[f4<10] yes=25,no=26,missing=26
					25:[f0<1.5] yes=33,no=34,missing=33
						33:leaf=-0.0666667
						34:leaf=-0.16
					26:[f0<2.5] yes=35,no=36,missing=35
						35:leaf=-0.0698795
						36:leaf=0.0545455
	2:[f0<2.5] yes=5,no=6,missing=5
		5:leaf=0.174713
		6:[f5<23.35] yes=11,no=12,missing=12
			11:[f6<4.00001] yes=17,no=18,missing=18
				17:[f2<28.5] yes=27,no=28,missing=27
					27:[f5<15.3729] yes=37,no=38,missing=38
						37:leaf=0.0604651
						38:leaf=0.146667
					28:leaf=-0.05
				18:[f5<10.825] yes=29,no=30,missing=30
					29:[f2<27.5] yes=39,no=40,missing=39
						39:leaf=0.00689655
						40:leaf=-0.1
					30:[f5<17.6] yes=41,no=42,missing=42
						41:leaf=0.1
						42:leaf=-0.0571429
			12:[f4<4.5] yes=19,no=20,missing=20
				19:leaf=-0.152
				20:leaf=-0.04
booster[1]:
0:[f1<-1.00136e-05] yes=1,no=2,missing=1
	1:[f2<6.5] yes=3,no=4,missing=3
		3:[f3<2.5] yes=7,no=8,missing=7
			7:leaf=0.146584
			8:leaf=-0.0983483
		4:[f0<1.5] yes=9,no=10,missing=9
			9:[f2<53] yes=13,no=14,missing=13
				13:[f5<30.5979] yes=21,no=22,missing=22
					21:[f5<29.85] yes=27,no=28,missing=28
						27:leaf=-0.000867867
						28:leaf=0.0954283
					22:[f3<2.5] yes=29,no=30,missing=30
						29:leaf=-0.000633206
						30:leaf=-0.0975838
				14:leaf=-0.116278
			10:[f2<9.5] yes=15,no=16,missing=15
				15:leaf=-0.0314113
				16:[f5<51.6979] yes=23,no=24,missing=23
					23:[f6<1.5] yes=31,no=32,missing=32
						31:leaf=-0.104094
						32:leaf=-0.147426
					24:[f5<63.0229] yes=33,no=34,missing=34
						33:leaf=0.0510994
						34:leaf=-0.131181
	2:[f0<2.5] yes=5,no=6,missing=5
		5:leaf=0.158865
		6:[f5<23.35] yes=11,no=12,missing=12
			11:[f2<36.5] yes=17,no=18,missing=17
				17:[f6<4.00001] yes=25,no=26,missing=26
					25:[f3<1.5] yes=35,no=36,missing=36
						35:leaf=0.00735812
						36:leaf=0.0894392
					26:[f5<10.825] yes=37,no=38,missing=38
						37:leaf=-0.0253465
						38:leaf=0.0537123
				18:leaf=-0.0873208
			12:[f4<4.5] yes=19,no=20,missing=20
				19:leaf=-0.139933
				20:leaf=-0.0376093
booster[2]:
0:[f1<-1.00136e-05] yes=1,no=2,missing=1
	1:[f2<6.5] yes=3,no=4,missing=3
		3:[f3<2.5] yes=7,no=8,missing=7
			7:leaf=0.136869
			8:leaf=-0.0921667
		4:[f0<1.5] yes=9,no=10,missing=9
			9:[f2<53] yes=13,no=14,missing=13
				13:[f5<30.5979] yes=21,no=22,missing=22
					21:[f5<29.85] yes=27,no=28,missing=28
						27:leaf=-0.000793503
						28:leaf=0.0892926
					22:[f3<2.5] yes=29,no=30,missing=30
						29:leaf=-0.000577602
						30:leaf=-0.0892904
				14:leaf=-0.107214
			10:[f2<9.5] yes=15,no=16,missing=15
				15:leaf=-0.0293356
				16:[f5<51.6979] yes=23,no=24,missing=23
					23:[f6<1.5] yes=31,no=32,missing=32
						31:leaf=-0.0951579
						32:leaf=-0.135249
					24:[f5<63.0229] yes=33,no=34,missing=34
						33:leaf=0.0479138
						34:leaf=-0.123125
	2:[f0<2.5] yes=5,no=6,missing=5
		5:leaf=0.146325
		6:[f5<23.35] yes=11,no=12,missing=12
			11:[f2<36.5] yes=17,no=18,missing=17
				17:[f5<7.8875] yes=25,no=26,missing=26
					25:[f2<18.5] yes=35,no=36,missing=35
						35:leaf=0.0276252
						36:leaf=0.084265
					26:[f5<10.825] yes=37,no=38,missing=38
						37:leaf=-0.0588885
						38:leaf=0.0482014
				18:leaf=-0.0820093
			12:[f4<4.5] yes=19,no=20,missing=20
				19:leaf=-0.129943
				20:leaf=-0.0353777
booster[3]:
0:[f1<-1.00136e-05] yes=1,no=2,missing=1
	1:[f2<6.5] yes=3,no=4,missing=3
		3:[f3<2.5] yes=7,no=8,missing=7
			7:leaf=0.128719
			8:leaf=-0.086625
		4:[f0<1.5] yes=9,no=10,missing=9
			9:[f2<53] yes=15,no=16,missing=15
				15:[f5<26.1437] yes=23,no=24,missing=23
					23:leaf=-0.121793
					24:[f5<27.1354] yes=29,no=30,missing=30
						29:leaf=0.0981231
						30:leaf=-0.0328505
				16:leaf=-0.0993336
			10:[f2<9.5] yes=17,no=18,missing=17
				17:leaf=-0.0274051
				18:[f5<51.6979] yes=25,no=26,missing=25
					25:[f6<1.5] yes=31,no=32,missing=32
						31:leaf=-0.0873349
						32:leaf=-0.125109
					26:[f5<63.0229] yes=33,no=34,missing=34
						33:leaf=0.0449607
						34:leaf=-0.116177
	2:[f0<2.5] yes=5,no=6,missing=5
		5:[f2<4.5] yes=11,no=12,missing=11
			11:leaf=0.0417927
			12:leaf=0.137815
		6:[f5<23.35] yes=13,no=14,missing=14
			13:[f2<36.5] yes=19,no=20,missing=19
				19:[f5<7.8875] yes=27,no=28,missing=28
					27:[f6<4.00001] yes=35,no=36,missing=36
						35:leaf=0.0816941
						36:leaf=0.0325377
					28:[f5<15.3729] yes=37,no=38,missing=38
						37:leaf=-0.0296372
						38:leaf=0.0647599
				20:leaf=-0.0771923
			14:[f4<4.5] yes=21,no=22,missing=22
				21:leaf=-0.121488
				22:leaf=-0.0332916
booster[4]:
0:[f1<-1.00136e-05] yes=1,no=2,missing=1
	1:[f2<13] yes=3,no=4,missing=3
		3:[f3<2.5] yes=7,no=8,missing=7
			7:leaf=0.124581
			8:leaf=-0.113817
		4:[f0<1.5] yes=9,no=10,missing=9
			9:[f5<26.1437] yes=15,no=16,missing=15
				15:leaf=-0.118259
				16:[f2<43] yes=23,no=24,missing=23
					23:[f2<31.5] yes=29,no=30,missing=29
						29:leaf=-0.0330394
						30:leaf=0.0607219
					24:[f2<47.5] yes=31,no=32,missing=31
						31:leaf=-0.111328
						32:leaf=-0.040291
			10:[f5<51.6979] yes=17,no=18,missing=17
				17:leaf=-0.113108
				18:[f5<63.0229] yes=25,no=26,missing=26
					25:leaf=0.0422167
					26:leaf=-0.110107
	2:[f0<2.5] yes=5,no=6,missing=5
		5:[f2<4.5] yes=11,no=12,missing=11
			11:leaf=0.0397609
			12:leaf=0.129174
		6:[f5<23.35] yes=13,no=14,missing=14
			13:[f2<36.5] yes=19,no=20,missing=19
				19:[f5<8.0396] yes=27,no=28,missing=28
					27:[f6<4.00001] yes=33,no=34,missing=34
						33:leaf=0.0789515
						34:leaf=0.0255
					28:[f5<10.825] yes=35,no=36,missing=36
						35:leaf=-0.0847625
						36:leaf=0.0414037
				20:leaf=-0.0727956
			14:[f4<4.5] yes=21,no=22,missing=22
				21:leaf=-0.114194
				22:leaf=-0.0313391
booster[5]:
0:[f1<-1.00136e-05] yes=1,no=2,missing=1
	1:[f2<6.5] yes=3,no=4,missing=3
		3:[f3<2.5] yes=7,no=8,missing=7
			7:leaf=0.115593
			8:leaf=-0.0752809
		4:[f0<1.5] yes=9,no=10,missing=9
			9:[f2<53] yes=15,no=16,missing=15
				15:[f5<26.1437] yes=25,no=26,missing=25
					25:leaf=-0.108944
					26:[f5<27.1354] yes=33,no=34,missing=34
						33:leaf=0.0914576
						34:leaf=-0.0277421
				16:leaf=-0.0894195
			10:[f2<9.5] yes=17,no=18,missing=17
				17:leaf=-0.0242621
				18:[f5<51.6979] yes=27,no=28,missing=27
					27:[f6<1.5] yes=35,no=36,missing=36
						35:leaf=-0.0725194
						36:leaf=-0.109083
					28:[f5<63.0229] yes=37,no=38,missing=38
						37:leaf=0.0396616
						38:leaf=-0.104742
	2:[f0<2.5] yes=5,no=6,missing=5
		5:[f2<4.5] yes=11,no=12,missing=11
			11:leaf=0.0378425
			12:[f5<28.8563] yes=19,no=20,missing=20
				19:[f2<49.5] yes=29,no=30,missing=29
					29:[f3<1.5] yes=39,no=40,missing=40
						39:leaf=0.0477481
						40:leaf=0.114606
					30:leaf=0.0208368
				20:leaf=0.13622
		6:[f5<23.35] yes=13,no=14,missing=14
			13:[f2<36.5] yes=21,no=22,missing=21
				21:[f5<8.0396] yes=31,no=32,missing=32
					31:[f6<4.00001] yes=41,no=42,missing=42
						41:leaf=0.0729005
						42:leaf=0.0233997
					32:[f5<10.825] yes=43,no=44,missing=44
						43:leaf=-0.0785528
						44:leaf=0.0377527
				22:leaf=-0.0687595
			14:[f4<4.5] yes=23,no=24,missing=24
				23:leaf=-0.107796
				24:leaf=-0.0295098
booster[6]:
0:[f1<-1.00136e-05] yes=1,no=2,missing=1
	1:[f2<13] yes=3,no=4,missing=3
		3:[f3<2.5] yes=7,no=8,missing=7
			7:leaf=0.114167
			8:leaf=-0.103393
		4:[f0<1.5] yes=9,no=10,missing=9
			9:[f5<26.1437] yes=15,no=16,missing=15
				15:leaf=-0.106862
				16:[f5<30.5979] yes=25,no=26,missing=26
					25:[f2<53.5] yes=37,no=38,missing=37
						37:leaf=0.0490892
						38:leaf=-0.0675711
					26:[f3<2.5] yes=39,no=40,missing=40
						39:leaf=-0.000705086
						40:leaf=-0.0739837
			10:[f5<51.6979] yes=17,no=18,missing=17
				17:[f6<1.5] yes=27,no=28,missing=28
					27:[f4<1.5] yes=41,no=42,missing=42
						41:leaf=0.0299786
						42:leaf=-0.085851
					28:[f5<13.25] yes=43,no=44,missing=43
						43:leaf=-0.0946791
						44:leaf=-0.124103
				18:[f5<63.0229] yes=29,no=30,missing=30
					29:leaf=0.0372782
					30:leaf=-0.0999504
	2:[f0<2.5] yes=5,no=6,missing=5
		5:[f2<4.5] yes=11,no=12,missing=11
			11:leaf=0.0360292
			12:[f5<28.8563] yes=19,no=20,missing=20
				19:[f2<37] yes=31,no=32,missing=31
					31:leaf=0.103124
					32:[f5<13.25] yes=45,no=46,missing=46
						45:leaf=-0.00694264
						46:leaf=0.0578264
				20:leaf=0.129897
		6:[f5<23.35] yes=13,no=14,missing=14
			13:[f2<28.5] yes=21,no=22,missing=21
				21:[f5<7.8875] yes=33,no=34,missing=34
					33:[f2<18.5] yes=47,no=48,missing=47
						47:leaf=0.0144331
						48:leaf=0.0789376
					34:[f5<15.3729] yes=49,no=50,missing=50
						49:leaf=-0.0362391
						50:leaf=0.0658012
				22:[f5<14.8729] yes=35,no=36,missing=36
					35:leaf=-0.0571862
					36:leaf=0.00556128
			14:[f4<4.5] yes=23,no=24,missing=24
				23:leaf=-0.102103
				24:leaf=-0.0277942
booster[7]:
0:[f1<-1.00136e-05] yes=1,no=2,missing=1
	1:[f2<6.5] yes=3,no=4,missing=3
		3:[f3<2.5] yes=7,no=8,missing=7
			7:leaf=0.105436
			8:leaf=-0.0658139
		4:[f0<1.5] yes=9,no=10,missing=9
			9:[f2<27.5] yes=15,no=16,missing=15
				15:[f2<24.5] yes=25,no=26,missing=25
					25:[f5<109.892] yes=35,no=36,missing=36
						35:leaf=-0.0499258
						36:leaf=-0.00753111
					26:leaf=0.102731
				16:[f5<37] yes=27,no=28,missing=28
					27:[f2<53.5] yes=37,no=38,missing=37
						37:leaf=0.0092662
						38:leaf=-0.0691761
					28:[f3<4.00001] yes=39,no=40,missing=40
						39:leaf=-0.0102759
						40:leaf=-0.109133
			10:[f2<9.5] yes=17,no=18,missing=17
				17:leaf=-0.0216135
				18:[f5<51.6979] yes=29,no=30,missing=29
					29:[f6<1.5] yes=41,no=42,missing=42
						41:leaf=-0.0624537
						42:leaf=-0.0963199
					30:[f5<63.0229] yes=43,no=44,missing=44
						43:leaf=0.0350515
						44:leaf=-0.0956303
	2:[f0<2.5] yes=5,no=6,missing=5
		5:[f2<4.5] yes=11,no=12,missing=11
			11:leaf=0.0343131
			12:[f5<28.8563] yes=19,no=20,missing=20
				19:[f2<37] yes=31,no=32,missing=31
					31:[f3<1.5] yes=45,no=46,missing=46
						45:leaf=0.0480028
						46:leaf=0.108323
					32:[f5<13.25] yes=47,no=48,missing=48
						47:leaf=-0.0065431
						48:leaf=0.0544729
				20:leaf=0.124471
		6:[f5<23.35] yes=13,no=14,missing=14
			13:[f2<36.5] yes=21,no=22,missing=21
				21:[f2<6.5] yes=33,no=34,missing=33
					33:leaf=0.0806562
					34:[f5<8.0396] yes=49,no=50,missing=50
						49:leaf=0.0482446
						50:leaf=-0.0174441
				22:leaf=-0.0624789
			14:[f4<4.5] yes=23,no=24,missing=24
				23:leaf=-0.0969716
				24:leaf=-0.026184
booster[8]:
0:[f1<-1.00136e-05] yes=1,no=2,missing=1
	1:[f2<13] yes=3,no=4,missing=3
		3:[f3<2.5] yes=7,no=8,missing=7
			7:leaf=0.105751
			8:leaf=-0.0948277
		4:[f0<1.5] yes=9,no=10,missing=9
			9:[f5<26.1437] yes=15,no=16,missing=15
				15:leaf=-0.0997579
				16:[f2<43] yes=23,no=24,missing=23
					23:[f2<31.5] yes=33,no=34,missing=33
						33:leaf=-0.0259441
						34:leaf=0.0571666
					24:[f2<47.5] yes=35,no=36,missing=35
						35:leaf=-0.101758
						36:leaf=-0.025559
			10:[f2<32.25] yes=17,no=18,missing=17
				17:[f2<30.75] yes=25,no=26,missing=25
					25:[f6<1.5] yes=37,no=38,missing=38
						37:leaf=-0.0429874
						38:leaf=-0.0926929
					26:[f3<4.00001] yes=39,no=40,missing=40
						39:leaf=-0.0216993
						40:leaf=0.0472798
				18:[f2<61.5] yes=27,no=28,missing=27
					27:leaf=-0.107149
					28:leaf=-0.02895
	2:[f0<2.5] yes=5,no=6,missing=5
		5:[f2<56.5] yes=11,no=12,missing=11
			11:[f2<4.5] yes=19,no=20,missing=19
				19:leaf=0.0326877
				20:leaf=0.107223
			12:leaf=0.0352812
		6:[f5<24.8083] yes=13,no=14,missing=14
			13:[f6<4.00001] yes=21,no=22,missing=22
				21:[f5<15.3729] yes=29,no=30,missing=30
					29:[f5<13.9354] yes=41,no=42,missing=42
						41:leaf=0.0595626
						42:leaf=-0.0916532
					30:leaf=0.10351
				22:[f5<17.6] yes=31,no=32,missing=32
					31:[f5<10.825] yes=43,no=44,missing=44
						43:leaf=-0.0227969
						44:leaf=0.0800956
					32:[f2<29.5] yes=45,no=46,missing=45
						45:leaf=-0.102282
						46:leaf=-0.0130935
			14:leaf=-0.0882867
booster[9]:
0:[f1<-1.00136e-05] yes=1,no=2,missing=1
	1:[f2<3.5] yes=3,no=4,missing=3
		3:[f3<2.5] yes=7,no=8,missing=7
			7:leaf=0.0911568
			8:leaf=-0.0343003
		4:[f0<1.5] yes=9,no=10,missing=9
			9:[f2<27.5] yes=15,no=16,missing=15
				15:[f5<77.0083] yes=27,no=28,missing=28
					27:leaf=0.100669
					28:[f4<1.5] yes=45,no=46,missing=45
						45:leaf=-0.0593751
						46:leaf=0.0209106
				16:[f5<37] yes=29,no=30,missing=30
					29:[f2<53.5] yes=47,no=48,missing=47
						47:leaf=0.0103807
						48:leaf=-0.0632602
					30:[f3<4.00001] yes=49,no=50,missing=50
						49:leaf=-0.00840604
						50:leaf=-0.100838
			10:[f2<32.25] yes=17,no=18,missing=17
				17:[f2<30.75] yes=31,no=32,missing=31
					31:[f4<1.5] yes=51,no=52,missing=52
						51:leaf=-0.0205621
						52:leaf=-0.0827351
					32:[f3<4.00001] yes=53,no=54,missing=54
						53:leaf=-0.0207046
						54:leaf=0.0430764
				18:[f2<61.5] yes=33,no=34,missing=33
					33:leaf=-0.101979
					34:leaf=-0.0275867
	2:[f0<2.5] yes=5,no=6,missing=5
		5:[f5<28.8563] yes=11,no=12,missing=12
			11:[f2<37] yes=19,no=20,missing=19
				19:leaf=0.0904429
				20:[f5<13.25] yes=35,no=36,missing=36
					35:leaf=-0.011644
					36:[f5<25.9646] yes=55,no=56,missing=56
						55:leaf=0.0772864
						56:leaf=-0.00502618
			12:[f4<1.5] yes=21,no=22,missing=21
				21:leaf=0.120998
				22:[f5<135.775] yes=37,no=38,missing=38
					37:leaf=0.0812216
					38:leaf=-0.0144481
		6:[f5<24.8083] yes=13,no=14,missing=14
			13:[f6<4.00001] yes=23,no=24,missing=24
				23:[f5<15.3729] yes=39,no=40,missing=40
					39:[f5<13.9354] yes=57,no=58,missing=58
						57:leaf=0.0550948
						58:leaf=-0.0850343
					40:leaf=0.0974089
				24:[f5<17.6] yes=41,no=42,missing=42
					41:[f5<10.825] yes=59,no=60,missing=60
						59:leaf=-0.0207758
						60:leaf=0.0744895
					42:[f2<29.5] yes=61,no=62,missing=61
						61:leaf=-0.0957154
						62:leaf=-0.0123917
			14:[f5<31.3312] yes=25,no=26,missing=26
				25:leaf=-0.100332
				26:[f5<37.0312] yes=43,no=44,missing=44
					43:leaf=0.0274506
					44:leaf=-0.082671
booster[10]:
0:[f1<-1.00136e-05] yes=1,no=2,missing=1
	1:[f5<7.9104] yes=3,no=4,missing=3
		3:[f2<27.5] yes=7,no=8,missing=7
			7:[f2<23.75] yes=15,no=16,missing=15
				15:[f6<1.5] yes=29,no=30,missing=30
					29:leaf=-0.00981026
					30:leaf=-0.100051
				16:[f5<7.18335] yes=31,no=32,missing=31
					31:leaf=0.0749079
					32:[f5<7.825] yes=49,no=50,missing=50
						49:leaf=-0.015516
						50:leaf=-0.0735862
			8:leaf=-0.101305
		4:[f2<3.5] yes=9,no=10,missing=9
			9:[f3<2.5] yes=17,no=18,missing=17
				17:leaf=0.0878692
				18:leaf=-0.0326667
			10:[f0<1.5] yes=19,no=20,missing=19
				19:[f2<53] yes=33,no=34,missing=33
					33:[f5<27.1354] yes=51,no=52,missing=52
						51:leaf=0.0489358
						52:leaf=-0.0177184
					34:[f6<2.00001] yes=53,no=54,missing=54
						53:leaf=-0.0202657
						54:leaf=-0.0854649
				20:[f5<7.9875] yes=35,no=36,missing=36
					35:leaf=0.0496386
					36:[f6<1.5] yes=55,no=56,missing=56
						55:leaf=-0.0161486
						56:leaf=-0.0752604
	2:[f0<2.5] yes=5,no=6,missing=5
		5:[f5<28.8563] yes=11,no=12,missing=12
			11:[f2<37] yes=21,no=22,missing=21
				21:[f2<27.5] yes=37,no=38,missing=37
					37:[f2<23.5] yes=57,no=58,missing=57
						57:leaf=0.0956305
						58:leaf=-0.0170307
					38:leaf=0.104341
				22:[f5<13.25] yes=39,no=40,missing=40
					39:leaf=-0.0109697
					40:[f5<25.9646] yes=59,no=60,missing=60
						59:leaf=0.0745523
						60:leaf=-0.00472851
			12:[f4<1.5] yes=23,no=24,missing=23
				23:leaf=0.117351
				24:[f5<135.775] yes=41,no=42,missing=42
					41:leaf=0.0783827
					42:leaf=-0.0135824
		6:[f5<24.8083] yes=13,no=14,missing=14
			13:[f6<4.00001] yes=25,no=26,missing=26
				25:[f5<15.6208] yes=43,no=44,missing=44
					43:[f4<4.00001] yes=61,no=62,missing=62
						61:leaf=-0.0738475
						62:leaf=0.0421712
					44:leaf=0.104299
				26:[f5<17.6] yes=45,no=46,missing=46
					45:[f5<10.825] yes=63,no=64,missing=64
						63:leaf=-0.0189354
						64:leaf=0.0693962
					46:[f2<29.5] yes=65,no=66,missing=65
						65:leaf=-0.0898126
						66:leaf=-0.0117279
			14:[f5<31.3312] yes=27,no=28,missing=28
				27:leaf=-0.0963319
				28:[f5<37.0312] yes=47,no=48,missing=48
					47:leaf=0.025919
					48:leaf=-0.0795086
booster[11]:
0:[f1<-1.00136e-05] yes=1,no=2,missing=1
	1:[f5<7.9104] yes=3,no=4,missing=3
		3:[f2<27.5] yes=7,no=8,missing=7
			7:[f5<7.2271] yes=15,no=16,missing=15
				15:[f2<21] yes=29,no=30,missing=29
					29:leaf=-0.0728759
					30:leaf=0.0610511
				16:[f2<24.5] yes=31,no=32,missing=31
					31:leaf=-0.0873849
					32:[f5<7.825] yes=49,no=50,missing=50
						49:leaf=0.0153414
						50:leaf=-0.0661262
			8:leaf=-0.0965542
		4:[f2<3.5] yes=9,no=10,missing=9
			9:[f3<2.5] yes=17,no=18,missing=17
				17:leaf=0.0848113
				18:leaf=-0.0311168
			10:[f0<1.5] yes=19,no=20,missing=19
				19:[f2<43] yes=33,no=34,missing=33
					33:[f2<31.5] yes=51,no=52,missing=51
						51:leaf=-0.0210055
						52:leaf=0.0541628
					34:[f2<47.5] yes=53,no=54,missing=53
						53:leaf=-0.0979732
						54:leaf=-0.0192238
				20:[f5<7.9875] yes=35,no=36,missing=36
					35:leaf=0.0452936
					36:[f6<1.5] yes=55,no=56,missing=56
						55:leaf=-0.0148948
						56:leaf=-0.0704859
	2:[f0<2.5] yes=5,no=6,missing=5
		5:[f5<28.8563] yes=11,no=12,missing=12
			11:[f2<37] yes=21,no=22,missing=21
				21:[f2<27.5] yes=37,no=38,missing=37
					37:[f2<23.5] yes=57,no=58,missing=57
						57:leaf=0.0922394
						58:leaf=-0.015807
					38:leaf=0.100824
				22:[f5<13.25] yes=39,no=40,missing=40
					39:leaf=-0.0103351
					40:[f5<25.9646] yes=59,no=60,missing=60
						59:leaf=0.07199
						60:leaf=-0.0044486
			12:[f4<1.5] yes=23,no=24,missing=23
				23:leaf=0.114108
				24:[f5<135.775] yes=41,no=42,missing=42
					41:leaf=0.0757192
					42:leaf=-0.0127697
		6:[f5<24.8083] yes=13,no=14,missing=14
			13:[f2<6.5] yes=25,no=26,missing=25
				25:[f2<3.5] yes=43,no=44,missing=43
					43:leaf=0.0265138
					44:leaf=0.0881832
				26:[f5<8.0396] yes=45,no=46,missing=46
					45:[f2<22.5] yes=61,no=62,missing=61
						61:leaf=0.0626987
						62:leaf=0.0140604
					46:[f5<15.3729] yes=63,no=64,missing=64
						63:leaf=-0.053401
						64:leaf=0.0152587
			14:[f5<31.3312] yes=27,no=28,missing=28
				27:leaf=-0.0926626
				28:[f5<37.0312] yes=47,no=48,missing=48
					47:leaf=0.0244766
					48:leaf=-0.0765676
booster[12]:
0:[f1<-1.00136e-05] yes=1,no=2,missing=1
	1:[f5<7.9104] yes=3,no=4,missing=3
		3:[f2<27.5] yes=7,no=8,missing=7
			7:[f5<7.2271] yes=15,no=16,missing=15
				15:[f2<21] yes=31,no=32,missing=31
					31:leaf=-0.0704153
					32:leaf=0.0561052
				16:[f2<24.5] yes=33,no=34,missing=33
					33:[f5<7.2396] yes=49,no=50,missing=50
						49:leaf=-0.0251788
						50:leaf=-0.0892002
					34:[f5<7.825] yes=51,no=52,missing=52
						51:leaf=0.0144168
						52:leaf=-0.0639929
			8:[f5<7.74375] yes=17,no=18,missing=17
				17:leaf=-0.107594
				18:[f5<7.8646] yes=35,no=36,missing=36
					35:[f2<32.5] yes=53,no=54,missing=53
						53:leaf=-0.0147918
						54:leaf=-0.0681114
					36:leaf=-0.0861822
		4:[f2<13] yes=9,no=10,missing=9
			9:[f3<2.5] yes=19,no=20,missing=19
				19:leaf=0.0998363
				20:leaf=-0.0817476
			10:[f5<7.9875] yes=21,no=22,missing=22
				21:leaf=0.0413936
				22:[f0<1.5] yes=37,no=38,missing=37
					37:[f2<53] yes=55,no=56,missing=55
						55:leaf=-0.00580225
						56:leaf=-0.0643809
					38:[f6<1.5] yes=57,no=58,missing=58
						57:leaf=-0.0154967
						58:leaf=-0.0692167
	2:[f0<2.5] yes=5,no=6,missing=5
		5:[f5<28.8563] yes=11,no=12,missing=12
			11:[f2<37] yes=23,no=24,missing=23
				23:[f2<27.5] yes=39,no=40,missing=39
					39:[f2<23.5] yes=59,no=60,missing=59
						59:leaf=0.0890893
						60:leaf=-0.0146754
					40:leaf=0.0975824
				24:[f5<13.25] yes=41,no=42,missing=42
					41:leaf=-0.00973772
					42:[f5<25.9646] yes=61,no=62,missing=62
						61:leaf=0.06958
						62:leaf=-0.00418537
			12:[f4<1.5] yes=25,no=26,missing=25
				25:leaf=0.111191
				26:[f5<135.775] yes=43,no=44,missing=44
					43:leaf=0.0732104
					44:leaf=-0.0120067
		6:[f5<23.35] yes=13,no=14,missing=14
			13:[f2<36.5] yes=27,no=28,missing=27
				27:[f2<6.5] yes=45,no=46,missing=45
					45:[f2<3.5] yes=63,no=64,missing=63
						63:leaf=0.0249841
						64:leaf=0.0844982
					46:[f5<8.0396] yes=65,no=66,missing=66
						65:leaf=0.0366115
						66:leaf=-0.0156925
				28:leaf=-0.0556124
			14:[f4<4.5] yes=29,no=30,missing=30
				29:[f2<9.5] yes=47,no=48,missing=47
					47:leaf=-0.026304
					48:leaf=-0.092028
				30:leaf=-0.0146495
booster[13]:
0:[f1<-1.00136e-05] yes=1,no=2,missing=1
	1:[f5<7.9104] yes=3,no=4,missing=3
		3:[f2<27.5] yes=7,no=8,missing=7
			7:[f5<7.0125] yes=15,no=16,missing=15
				15:leaf=0.0276971
				16:[f6<1.5] yes=31,no=32,missing=32
					31:leaf=-0.00561488
					32:[f2<23.5] yes=51,no=52,missing=51
						51:leaf=-0.0869453
						52:leaf=-0.0357826
			8:[f5<7.74375] yes=17,no=18,missing=17
				17:leaf=-0.1038
				18:[f5<7.8646] yes=33,no=34,missing=34
					33:[f2<32.5] yes=53,no=54,missing=53
						53:leaf=-0.0137245
						54:leaf=-0.0659173
					34:leaf=-0.0826279
		4:[f2<6.5] yes=9,no=10,missing=9
			9:[f3<2.5] yes=19,no=20,missing=19
				19:leaf=0.0877253
				20:leaf=-0.0471395
			10:[f0<1.5] yes=21,no=22,missing=21
				21:[f2<53] yes=35,no=36,missing=35
					35:[f5<27.1354] yes=55,no=56,missing=56
						55:leaf=0.0465095
						56:leaf=-0.0158314
					36:[f6<2.00001] yes=57,no=58,missing=58
						57:leaf=-0.0141514
						58:leaf=-0.0769451
				22:[f5<7.9875] yes=37,no=38,missing=38
					37:leaf=0.037881
					38:[f6<1.5] yes=59,no=60,missing=60
						59:leaf=-0.0135797
						60:leaf=-0.0629779
	2:[f0<2.5] yes=5,no=6,missing=5
		5:[f5<28.8563] yes=11,no=12,missing=12
			11:[f2<37] yes=23,no=24,missing=23
				23:[f3<1.5] yes=39,no=40,missing=40
					39:[f2<27.5] yes=61,no=62,missing=61
						61:leaf=-0.00400308
						62:leaf=0.0641453
					40:leaf=0.0872085
				24:[f5<13.25] yes=41,no=42,missing=42
					41:leaf=-0.00917536
					42:[f5<25.9646] yes=63,no=64,missing=64
						63:leaf=0.0673063
						64:leaf=-0.00393781
			12:[f4<1.5] yes=25,no=26,missing=25
				25:leaf=0.10854
				26:[f3<1.5] yes=43,no=44,missing=44
					43:leaf=-0.012243
					44:leaf=0.0725993
		6:[f5<24.8083] yes=13,no=14,missing=14
			13:[f6<4.00001] yes=27,no=28,missing=28
				27:[f5<15.6208] yes=45,no=46,missing=46
					45:[f4<4.00001] yes=65,no=66,missing=66
						65:leaf=-0.0681755
						66:leaf=0.0363497
					46:leaf=0.0983409
				28:[f5<17.6] yes=47,no=48,missing=48
					47:[f5<10.825] yes=67,no=68,missing=68
						67:leaf=-0.0180957
						68:leaf=0.0649173
					48:[f2<29.5] yes=69,no=70,missing=69
						69:leaf=-0.0860502
						70:leaf=-0.0100193
			14:[f5<31.3312] yes=29,no=30,missing=30
				29:leaf=-0.0876571
				30:[f5<37.0312] yes=49,no=50,missing=50
					49:leaf=0.0258389
					50:leaf=-0.0719262
booster[14]:
0:[f1<-1.00136e-05] yes=1,no=2,missing=1
	1:[f5<7.9104] yes=3,no=4,missing=3
		3:[f2<27.5] yes=7,no=8,missing=7
			7:[f5<7.0125] yes=15,no=16,missing=15
				15:leaf=0.0260583
				16:[f6<1.5] yes=31,no=32,missing=32
					31:leaf=-0.00528689
					32:[f2<23.5] yes=51,no=52,missing=51
						51:leaf=-0.0835645
						52:leaf=-0.0335187
			8:[f5<7.74375] yes=17,no=18,missing=17
				17:leaf=-0.100287
				18:[f5<7.8646] yes=33,no=34,missing=34
					33:[f2<32.5] yes=53,no=54,missing=53
						53:leaf=-0.0127303
						54:leaf=-0.0638383
					34:leaf=-0.0792629
		4:[f2<13] yes=9,no=10,missing=9
			9:[f3<2.5] yes=19,no=20,missing=19
				19:leaf=0.0942881
				20:[f2<3.5] yes=35,no=36,missing=35
					35:leaf=-0.0235934
					36:leaf=-0.0873376
			10:[f6<1.5] yes=21,no=22,missing=22
				21:[f2<26.5] yes=37,no=38,missing=37
					37:[f5<71.2791] yes=55,no=56,missing=56
						55:leaf=0.0744198
						56:leaf=-0.0127338
					38:[f5<53.2167] yes=57,no=58,missing=58
						57:leaf=-0.0409505
						58:leaf=0.0208913
				22:[f5<7.9875] yes=39,no=40,missing=40
					39:leaf=0.0347076
					40:[f5<26.2687] yes=59,no=60,missing=60
						59:leaf=-0.0652936
						60:leaf=-0.0260766
	2:[f0<2.5] yes=5,no=6,missing=5
		5:[f5<28.8563] yes=11,no=12,missing=12
			11:[f2<43] yes=23,no=24,missing=23
				23:leaf=0.0699555
				24:[f5<25.9646] yes=41,no=42,missing=42
					41:leaf=0.0379925
					42:leaf=-0.0163835
			12:[f5<149.035] yes=25,no=26,missing=26
				25:leaf=0.106819
				26:[f5<188.102] yes=43,no=44,missing=44
					43:leaf=-0.0305408
					44:leaf=0.0754741
		6:[f5<24.8083] yes=13,no=14,missing=14
			13:[f2<6.5] yes=27,no=28,missing=27
				27:[f2<3.5] yes=45,no=46,missing=45
					45:leaf=0.0214127
					46:leaf=0.0812553
				28:[f5<8.0396] yes=47,no=48,missing=48
					47:[f2<22.5] yes=61,no=62,missing=61
						61:leaf=0.0552715
						62:leaf=0.00902587
					48:[f5<15.3729] yes=63,no=64,missing=64
						63:leaf=-0.0473543
						64:leaf=0.0149222
			14:[f5<31.3312] yes=29,no=30,missing=30
				29:leaf=-0.0846121
				30:[f5<37.0312] yes=49,no=50,missing=50
					49:leaf=0.0244035
					50:leaf=-0.0694701
booster[15]:
0:[f1<-1.00136e-05] yes=1,no=2,missing=1
	1:[f5<7.9104] yes=3,no=4,missing=3
		3:[f2<27.5] yes=7,no=8,missing=7
			7:[f2<23.75] yes=15,no=16,missing=15
				15:[f6<1.5] yes=31,no=32,missing=32
					31:leaf=-0.00427529
					32:leaf=-0.0840873
				16:[f5<7.18335] yes=33,no=34,missing=33
					33:leaf=0.0632047
					34:[f5<7.825] yes=51,no=52,missing=52
						51:leaf=-0.0109478
						52:leaf=-0.0644005
			8:[f5<7.74375] yes=17,no=18,missing=17
				17:leaf=-0.0969996
				18:[f5<7.8646] yes=35,no=36,missing=36
					35:[f2<32.5] yes=53,no=54,missing=53
						53:leaf=-0.0118046
						54:leaf=-0.061864
					36:leaf=-0.0760602
		4:[f3<2.5] yes=9,no=10,missing=9
			9:[f2<14] yes=19,no=20,missing=19
				19:leaf=0.0898388
				20:[f5<52.2771] yes=37,no=38,missing=38
					37:[f5<7.9875] yes=55,no=56,missing=56
						55:leaf=0.0318331
						56:leaf=-0.0451106
					38:[f5<59.0875] yes=57,no=58,missing=58
						57:leaf=0.0683928
						58:leaf=-0.030492
			10:[f2<3.5] yes=21,no=22,missing=21
				21:leaf=-0.0224921
				22:leaf=-0.0998589
	2:[f0<2.5] yes=5,no=6,missing=5
		5:[f5<28.8563] yes=11,no=12,missing=12
			11:[f2<37] yes=23,no=24,missing=23
				23:[f2<27.5] yes=39,no=40,missing=39
					39:[f2<23.5] yes=59,no=60,missing=59
						59:leaf=0.0821543
						60:leaf=-0.0224521
					40:leaf=0.0901381
				24:[f5<13.25] yes=41,no=42,missing=42
					41:leaf=-0.0117433
					42:[f5<25.9646] yes=61,no=62,missing=62
						61:leaf=0.0636861
						62:leaf=-0.00344986
			12:[f4<1.5] yes=25,no=26,missing=25
				25:leaf=0.104048
				26:[f3<1.5] yes=43,no=44,missing=44
					43:leaf=-0.0154218
					44:leaf=0.0679897
		6:[f5<24.8083] yes=13,no=14,missing=14
			13:[f6<4.00001] yes=27,no=28,missing=28
				27:[f5<15.3729] yes=45,no=46,missing=46
					45:[f5<13.9354] yes=63,no=64,missing=64
						63:leaf=0.0403818
						64:leaf=-0.0694944
					46:[f4<1.5] yes=65,no=66,missing=66
						65:leaf=0.0246985
						66:leaf=0.0951294
				28:[f5<17.6] yes=47,no=48,missing=48
					47:[f5<10.825] yes=67,no=68,missing=68
						67:leaf=-0.016385
						68:leaf=0.0606537
					48:[f2<29.5] yes=69,no=70,missing=69
						69:leaf=-0.0825971
						70:leaf=-0.0102808
			14:[f5<31.3312] yes=29,no=30,missing=30
				29:leaf=-0.0817571
				30:[f5<37.0312] yes=49,no=50,missing=50
					49:leaf=0.023051
					50:leaf=-0.067156
booster[16]:
0:[f1<-1.00136e-05] yes=1,no=2,missing=1
	1:[f5<7.9104] yes=3,no=4,missing=3
		3:[f2<32.5] yes=7,no=8,missing=7
			7:[f2<28.75] yes=15,no=16,missing=15
				15:[f5<7.7979] yes=29,no=30,missing=29
					29:[f5<7.7625] yes=49,no=50,missing=49
						49:leaf=-0.0617941
						50:leaf=0.0374799
					30:leaf=-0.100793
				16:[f5<7.7625] yes=31,no=32,missing=32
					31:leaf=-0.0162696
					32:leaf=0.0292471
			8:leaf=-0.0980542
		4:[f3<2.5] yes=9,no=10,missing=9
			9:[f2<10] yes=17,no=18,missing=17
				17:leaf=0.0962876
				18:[f5<52.2771] yes=33,no=34,missing=34
					33:[f5<36.125] yes=51,no=52,missing=52
						51:leaf=-0.0304328
						52:leaf=-0.0954695
					34:[f5<59.0875] yes=53,no=54,missing=54
						53:leaf=0.0628081
						54:leaf=-0.0241764
			10:[f2<3.5] yes=19,no=20,missing=19
				19:leaf=-0.0214438
				20:leaf=-0.0964128
	2:[f0<2.5] yes=5,no=6,missing=5
		5:[f5<26.125] yes=11,no=12,missing=12
			11:[f3<1.5] yes=21,no=22,missing=22
				21:[f2<27.5] yes=35,no=36,missing=35
					35:leaf=-0.0179947
					36:leaf=0.0232501
				22:[f5<13.25] yes=37,no=38,missing=38
					37:[f2<37] yes=55,no=56,missing=55
						55:leaf=0.0564932
						56:leaf=-0.0110633
					38:leaf=0.0873178
			12:[f5<149.035] yes=23,no=24,missing=24
				23:[f2<49.5] yes=39,no=40,missing=39
					39:leaf=0.104352
					40:leaf=0.0345042
				24:[f5<188.102] yes=41,no=42,missing=42
					41:leaf=-0.0319575
					42:leaf=0.0704492
		6:[f5<24.8083] yes=13,no=14,missing=14
			13:[f2<6.5] yes=25,no=26,missing=25
				25:[f2<3.5] yes=43,no=44,missing=43
					43:leaf=0.0191901
					44:leaf=0.0778012
				26:[f5<8.0396] yes=45,no=46,missing=46
					45:[f2<22.5] yes=57,no=58,missing=57
						57:leaf=0.0508696
						58:leaf=0.0067313
					46:[f5<8.6729] yes=59,no=60,missing=60
						59:leaf=-0.0874365
						60:leaf=-0.00706942
			14:[f5<32.8812] yes=27,no=28,missing=28
				27:[f5<30.2] yes=47,no=48,missing=48
					47:leaf=-0.0618541
					48:leaf=0.015068
				28:leaf=-0.0818182
booster[17]:
0:[f1<-1.00136e-05] yes=1,no=2,missing=1
	1:[f5<7.9104] yes=3,no=4,missing=3
		3:[f2<27.5] yes=7,no=8,missing=7
			7:[f2<19.5] yes=15,no=16,missing=15
				15:leaf=-0.087389
				16:[f5<7.7979] yes=29,no=30,missing=29
					29:[f5<7.75835] yes=45,no=46,missing=46
						45:leaf=-0.0245826
						46:leaf=0.0843732
					30:leaf=-0.0783569
			8:[f5<7.74375] yes=17,no=18,missing=17
				17:leaf=-0.0916442
				18:[f5<7.8646] yes=31,no=32,missing=32
					31:[f6<4.00001] yes=47,no=48,missing=48
						47:leaf=-0.0371666
						48:leaf=-0.0035952
					32:leaf=-0.0698658
		4:[f3<2.5] yes=9,no=10,missing=9
			9:[f2<14] yes=19,no=20,missing=19
				19:leaf=0.0830322
				20:[f0<1.5] yes=33,no=34,missing=33
					33:[f2<53] yes=49,no=50,missing=49
						49:leaf=0.00381807
						50:leaf=-0.0512347
					34:[f5<7.9875] yes=51,no=52,missing=52
						51:leaf=0.0317178
						52:leaf=-0.0463474
			10:[f2<3.5] yes=21,no=22,missing=21
				21:leaf=-0.0204458
				22:leaf=-0.0932137
	2:[f0<2.5] yes=5,no=6,missing=5
		5:[f5<28.8563] yes=11,no=12,missing=12
			11:[f2<37] yes=23,no=24,missing=23
				23:[f2<27.5] yes=35,no=36,missing=35
					35:[f2<23.5] yes=53,no=54,missing=53
						53:leaf=0.0779898
						54:leaf=-0.0236797
					36:leaf=0.0859319
				24:[f5<13.25] yes=37,no=38,missing=38
					37:leaf=-0.0104233
					38:leaf=0.030478
			12:[f4<1.5] yes=25,no=26,missing=25
				25:leaf=0.100283
				26:[f5<135.775] yes=39,no=40,missing=40
					39:leaf=0.0636126
					40:leaf=-0.0193638
		6:[f2<38.5] yes=13,no=14,missing=13
			13:[f2<5.5] yes=27,no=28,missing=27
				27:[f2<3.5] yes=41,no=42,missing=41
					41:leaf=0.0046104
					42:leaf=0.100145
				28:[f5<8.0396] yes=43,no=44,missing=44
					43:[f2<22.5] yes=55,no=56,missing=55
						55:leaf=0.0473245
						56:leaf=0.0105844
					44:[f2<23] yes=57,no=58,missing=57
						57:leaf=-0.0688979
						58:leaf=0.00436241
			14:leaf=-0.0732571
booster[18]:
0:[f1<-1.00136e-05] yes=1,no=2,missing=1
	1:[f5<7.9104] yes=3,no=4,missing=3
		3:[f2<32.5] yes=7,no=8,missing=7
			7:[f2<28.75] yes=15,no=16,missing=15
				15:[f5<7.7979] yes=29,no=30,missing=29
					29:[f5<7.7625] yes=45,no=46,missing=45
						45:leaf=-0.0549425
						46:leaf=0.0320868
					30:leaf=-0.0961991
				16:[f5<7.7625] yes=31,no=32,missing=32
					31:leaf=-0.0125123
					32:leaf=0.0298178
			8:leaf=-0.0935909
		4:[f3<2.5] yes=9,no=10,missing=9
			9:[f2<10] yes=17,no=18,missing=17
				17:leaf=0.0903087
				18:[f5<26.2687] yes=33,no=34,missing=34
					33:[f5<8.1354] yes=47,no=48,missing=48
						47:leaf=0.00187389
						48:leaf=-0.052174
					34:[f5<26.775] yes=49,no=50,missing=50
						49:leaf=0.043864
						50:leaf=-0.0166771
			10:[f2<3.5] yes=19,no=20,missing=19
				19:leaf=-0.0194954
				20:leaf=-0.0902229
	2:[f0<2.5] yes=5,no=6,missing=5
		5:[f5<28.8563] yes=11,no=12,missing=12
			11:[f2<43] yes=21,no=22,missing=21
				21:[f2<27.5] yes=35,no=36,missing=35
					35:[f2<23.5] yes=51,no=52,missing=51
						51:leaf=0.0756304
						52:leaf=-0.0219462
					36:[f2<37] yes=53,no=54,missing=53
						53:leaf=0.0835422
						54:leaf=0.0195093
				22:[f5<25.9646] yes=37,no=38,missing=38
					37:leaf=0.0329218
					38:leaf=-0.0207636
			12:[f5<149.035] yes=23,no=24,missing=24
				23:leaf=0.0988842
				24:[f5<188.102] yes=39,no=40,missing=40
					39:leaf=-0.0321409
					40:leaf=0.0670903
		6:[f5<24.8083] yes=13,no=14,missing=14
			13:[f6<4.00001] yes=25,no=26,missing=26
				25:[f5<15.6208] yes=41,no=42,missing=42
					41:[f4<4.00001] yes=55,no=56,missing=56
						55:leaf=-0.0618612
						56:leaf=0.0295403
					42:leaf=0.0899418
				26:[f5<17.6] yes=43,no=44,missing=44
					43:[f5<10.825] yes=57,no=58,missing=58
						57:leaf=-0.0152987
						58:leaf=0.0560271
					44:[f2<29.5] yes=59,no=60,missing=59
						59:leaf=-0.077766
						60:leaf=-0.00879615
			14:[f5<31.3312] yes=27,no=28,missing=28
				27:leaf=-0.0767352
				28:leaf=-0.022799
booster[19]:
0:[f1<-1.00136e-05] yes=1,no=2,missing=1
	1:[f5<7.9104] yes=3,no=4,missing=3
		3:[f2<32.5] yes=7,no=8,missing=7
			7:[f2<28.75] yes=15,no=16,missing=15
				15:[f5<7.7979] yes=27,no=28,missing=27
					27:[f5<7.7625] yes=49,no=50,missing=49
						49:leaf=-0.0516093
						50:leaf=0.0294228
					28:leaf=-0.0937342
				16:[f5<7.7625] yes=29,no=30,missing=30
					29:leaf=-0.0119309
					30:leaf=0.027984
			8:leaf=-0.0911955
		4:[f6<1.5] yes=9,no=10,missing=10
			9:[f3<1.5] yes=17,no=18,missing=18
				17:[f5<80.6854] yes=31,no=32,missing=32
					31:[f4<1.5] yes=51,no=52,missing=52
						51:leaf=0.119711
						52:leaf=0.0160188
					32:leaf=-0.020441
				18:[f5<29.85] yes=33,no=34,missing=34
					33:[f5<27.1354] yes=53,no=54,missing=54
						53:leaf=-0.00922049
						54:leaf=-0.0719879
					34:[f2<43] yes=55,no=56,missing=55
						55:leaf=0.0420444
						56:leaf=-0.0435481
			10:[f5<7.9875] yes=19,no=20,missing=20
				19:[f2<29.5] yes=35,no=36,missing=35
					35:leaf=-0.0212892
					36:leaf=0.0557896
				20:[f2<12.5] yes=37,no=38,missing=37
					37:[f3<2.5] yes=57,no=58,missing=57
						57:leaf=0.0898894
						58:leaf=-0.0606311
					38:[f2<25.5] yes=59,no=60,missing=59
						59:leaf=-0.0731887
						60:leaf=-0.0259911
	2:[f0<2.5] yes=5,no=6,missing=5
		5:[f5<28.8563] yes=11,no=12,missing=12
			11:[f2<43] yes=21,no=22,missing=21
				21:[f2<27.5] yes=39,no=40,missing=39
					39:[f2<23.5] yes=61,no=62,missing=61
						61:leaf=0.0733759
						62:leaf=-0.0203483
					40:[f2<37] yes=63,no=64,missing=63
						63:leaf=0.081249
						64:leaf=0.0186085
				22:[f5<25.9646] yes=41,no=42,missing=42
					41:leaf=0.0313655
					42:leaf=-0.0195433
			12:[f4<1.5] yes=23,no=24,missing=23
				23:leaf=0.0967267
				24:[f3<1.5] yes=43,no=44,missing=44
					43:leaf=-0.0236314
					44:leaf=0.0620466
		6:[f2<38.5] yes=13,no=14,missing=13
			13:[f2<5.5] yes=25,no=26,missing=25
				25:[f2<3.5] yes=45,no=46,missing=45
					45:leaf=0.00330786
					46:leaf=0.0968216
				26:[f5<8.0396] yes=47,no=48,missing=48
					47:[f2<22.5] yes=65,no=66,missing=65
						65:leaf=0.0438113
						66:leaf=0.00891361
					48:[f2<32.5] yes=67,no=68,missing=67
						67:leaf=-0.0335258
						68:leaf=0.0640955
			14:leaf=-0.0685395
booster[20]:
0:[f1<-1.00136e-05] yes=1,no=2,missing=1
	1:[f5<7.9104] yes=3,no=4,missing=3
		3:[f2<32.5] yes=7,no=8,missing=7
			7:[f2<28.75] yes=15,no=16,missing=15
				15:[f5<7.7979] yes=29,no=30,missing=29
					29:[f5<7.7625] yes=43,no=44,missing=43
						43:leaf=-0.0484251
						44:leaf=0.0270038
					30:leaf=-0.0913845
				16:[f5<7.7625] yes=31,no=32,missing=32
					31:leaf=-0.0113767
					32:leaf=0.0262685
			8:leaf=-0.0889009
		4:[f3<2.5] yes=9,no=10,missing=9
			9:[f2<10] yes=17,no=18,missing=17
				17:leaf=0.0847277
				18:[f5<52.2771] yes=33,no=34,missing=34
					33:[f5<36.125] yes=45,no=46,missing=46
						45:leaf=-0.0209594
						46:leaf=-0.0890288
					34:[f5<59.0875] yes=47,no=48,missing=48
						47:leaf=0.0624547
						48:leaf=-0.0197869
			10:[f2<3.5] yes=19,no=20,missing=19
				19:leaf=-0.0157815
				20:leaf=-0.0856866
	2:[f0<2.5] yes=5,no=6,missing=5
		5:[f5<13.25] yes=11,no=12,missing=12
			11:[f2<37] yes=21,no=22,missing=21
				21:leaf=0.0463964
				22:leaf=-0.012805
			12:[f3<1.5] yes=23,no=24,missing=24
				23:[f2<27.5] yes=35,no=36,missing=35
					35:[f2<23.5] yes=49,no=50,missing=49
						49:leaf=0.0421744
						50:leaf=-0.0692828
					36:[f5<26.125] yes=51,no=52,missing=52
						51:leaf=0.0150013
						52:leaf=0.0841614
				24:[f2<49.5] yes=37,no=38,missing=37
					37:leaf=0.0990675
					38:leaf=0.025002
		6:[f5<24.8083] yes=13,no=14,missing=14
			13:[f6<4.00001] yes=25,no=26,missing=26
				25:[f5<15.3729] yes=39,no=40,missing=40
					39:[f5<13.9354] yes=53,no=54,missing=54
						53:leaf=0.0315886
						54:leaf=-0.059202
					40:leaf=0.076791
				26:[f3<3.5] yes=41,no=42,missing=42
					41:[f2<30.5] yes=55,no=56,missing=55
						55:leaf=-0.0619432
						56:leaf=0.0128291
					42:[f2<27.5] yes=57,no=58,missing=57
						57:leaf=0.0474425
						58:leaf=-0.0498787
			14:[f5<32.8812] yes=27,no=28,missing=28
				27:leaf=-0.0216914
				28:leaf=-0.0746252
booster[21]:
0:[f1<-1.00136e-05] yes=1,no=2,missing=1
	1:[f0<1.5] yes=3,no=4,missing=3
		3:[f5<26.1437] yes=7,no=8,missing=7
			7:leaf=-0.0730057
			8:[f5<30.5979] yes=15,no=16,missing=16
				15:[f5<29.85] yes=27,no=28,missing=28
					27:[f5<27.1354] yes=45,no=46,missing=46
						45:leaf=0.0440403
						46:leaf=-0.0740735
					28:leaf=0.100452
				16:[f6<1.5] yes=29,no=30,missing=30
					29:[f5<98.7521] yes=47,no=48,missing=48
						47:leaf=0.0479809
						48:leaf=-0.0281217
					30:[f5<86.7375] yes=49,no=50,missing=50
						49:leaf=-0.0548841
						50:leaf=0.0184418
		4:[f2<32.25] yes=9,no=10,missing=9
			9:[f2<30.75] yes=17,no=18,missing=17
				17:[f6<1.5] yes=31,no=32,missing=32
					31:[f4<1.5] yes=51,no=52,missing=52
						51:leaf=0.0729892
						52:leaf=-0.0136852
					32:[f2<9.5] yes=53,no=54,missing=53
						53:leaf=0.00990364
						54:leaf=-0.0503071
				18:[f5<11.75] yes=33,no=34,missing=34
					33:leaf=0.0190481
					34:leaf=0.070934
			10:[f5<13.25] yes=19,no=20,missing=20
				19:[f5<7.9104] yes=35,no=36,missing=36
					35:leaf=-0.0829101
					36:[f2<38.5] yes=55,no=56,missing=55
						55:leaf=-0.0544904
						56:leaf=0.0178173
				20:leaf=-0.0942456
	2:[f0<2.5] yes=5,no=6,missing=5
		5:[f5<13.25] yes=11,no=12,missing=12
			11:[f2<37] yes=21,no=22,missing=21
				21:leaf=0.0443177
				22:leaf=-0.0120622
			12:[f3<1.5] yes=23,no=24,missing=24
				23:[f2<27.5] yes=37,no=38,missing=37
					37:[f2<23.5] yes=57,no=58,missing=57
						57:leaf=0.0402294
						58:leaf=-0.0642537
					38:[f5<26.125] yes=59,no=60,missing=60
						59:leaf=0.0143006
						60:leaf=0.0820807
				24:[f2<49.5] yes=39,no=40,missing=39
					39:leaf=0.0969073
					40:leaf=0.0238277
		6:[f2<38.5] yes=13,no=14,missing=13
			13:[f2<5.5] yes=25,no=26,missing=25
				25:[f2<3.5] yes=41,no=42,missing=41
					41:leaf=0.00211734
					42:leaf=0.0924297
				26:[f2<14.75] yes=43,no=44,missing=43
					43:leaf=-0.0625287
					44:[f2<16.5] yes=61,no=62,missing=61
						61:leaf=0.0708836
						62:leaf=-0.000127675
			14:leaf=-0.0634156
booster[22]:
0:[f1<-1.00136e-05] yes=1,no=2,missing=1
	1:[f5<7.9104] yes=3,no=4,missing=3
		3:[f2<27.5] yes=7,no=8,missing=7
			7:[f2<19.5] yes=15,no=16,missing=15
				15:leaf=-0.0804262
				16:[f5<7.2396] yes=29,no=30,missing=29
					29:[f5<7.13335] yes=39,no=40,missing=40
						39:leaf=-0.0200267
						40:leaf=0.100362
					30:[f5<7.7979] yes=41,no=42,missing=42
						41:leaf=-0.00864181
						42:leaf=-0.0663368
			8:[f5<7.74375] yes=17,no=18,missing=17
				17:leaf=-0.0814754
				18:[f5<7.8646] yes=31,no=32,missing=32
					31:[f2<30] yes=43,no=44,missing=43
						43:leaf=0.001347
						44:leaf=-0.0320628
					32:[f2<28.5] yes=45,no=46,missing=45
						45:leaf=-0.0687527
						46:leaf=-0.0157433
		4:[f3<2.5] yes=9,no=10,missing=9
			9:[f2<10] yes=19,no=20,missing=19
				19:leaf=0.0818446
				20:[f0<1.5] yes=33,no=34,missing=33
					33:[f2<53] yes=47,no=48,missing=47
						47:leaf=0.00956848
						48:leaf=-0.0457108
					34:[f5<8.1354] yes=49,no=50,missing=50
						49:leaf=0.00792695
						50:leaf=-0.0395359
			10:[f2<3.5] yes=21,no=22,missing=21
				21:leaf=-0.0155097
				22:leaf=-0.0827319
	2:[f0<2.5] yes=5,no=6,missing=5
		5:[f5<149.035] yes=11,no=12,missing=12
			11:[f5<28.8563] yes=23,no=24,missing=24
				23:[f2<43] yes=35,no=36,missing=35
					35:[f2<27.5] yes=51,no=52,missing=51
						51:leaf=0.0246493
						52:leaf=0.0658382
					36:[f5<25.9646] yes=53,no=54,missing=54
						53:leaf=0.0276555
						54:leaf=-0.0235164
				24:leaf=0.0927928
			12:leaf=0.0145952
		6:[f5<24.8083] yes=13,no=14,missing=14
			13:[f2<6.5] yes=25,no=26,missing=25
				25:leaf=0.0472026
				26:[f3<3.5] yes=37,no=38,missing=38
					37:[f5<15.3729] yes=55,no=56,missing=56
						55:leaf=-0.0676132
						56:leaf=0.018778
					38:[f5<13.4646] yes=57,no=58,missing=58
						57:leaf=0.0199933
						58:leaf=-0.024771
			14:[f5<31.3312] yes=27,no=28,missing=28
				27:leaf=-0.071199
				28:leaf=-0.0165179
booster[23]:
0:[f1<-1.00136e-05] yes=1,no=2,missing=1
	1:[f5<7.9104] yes=3,no=4,missing=3
		3:[f2<32.5] yes=7,no=8,missing=7
			7:[f2<28.75] yes=15,no=16,missing=15
				15:[f5<7.7979] yes=27,no=28,missing=27
					27:[f5<7.7625] yes=41,no=42,missing=41
						41:leaf=-0.0415762
						42:leaf=0.0307672
					28:leaf=-0.0864192
				16:leaf=0.0134439
			8:leaf=-0.0832445
		4:[f3<2.5] yes=9,no=10,missing=9
			9:[f2<14] yes=17,no=18,missing=17
				17:[f3<1.5] yes=29,no=30,missing=30
					29:leaf=0.0826127
					30:leaf=0.0190572
				18:[f6<1.5] yes=31,no=32,missing=32
					31:[f4<1.5] yes=43,no=44,missing=44
						43:leaf=0.0487195
						44:leaf=-0.00444889
					32:[f2<25.5] yes=45,no=46,missing=45
						45:leaf=-0.0577749
						46:leaf=-0.0132173
			10:[f2<3.5] yes=19,no=20,missing=19
				19:leaf=-0.0147929
				20:leaf=-0.080293
	2:[f0<2.5] yes=5,no=6,missing=5
		5:[f5<13.25] yes=11,no=12,missing=12
			11:[f2<37] yes=21,no=22,missing=21
				21:leaf=0.0401621
				22:leaf=-0.014046
			12:[f3<1.5] yes=23,no=24,missing=24
				23:[f2<27.5] yes=33,no=34,missing=33
					33:[f2<23.5] yes=47,no=48,missing=47
						47:leaf=0.0358161
						48:leaf=-0.0622048
					34:[f5<26.125] yes=49,no=50,missing=50
						49:leaf=0.0116131
						50:leaf=0.0781928
				24:[f2<49.5] yes=35,no=36,missing=35
					35:leaf=0.0939285
					36:leaf=0.0220049
		6:[f5<32.8812] yes=13,no=14,missing=14
			13:[f2<5.5] yes=25,no=26,missing=25
				25:[f2<3.5] yes=37,no=38,missing=37
					37:leaf=0.000148893
					38:leaf=0.0879955
				26:[f2<12] yes=39,no=40,missing=39
					39:leaf=-0.0665659
					40:[f2<38.5] yes=51,no=52,missing=51
						51:leaf=0.00790036
						52:leaf=-0.0450707
			14:leaf=-0.0706612
booster[24]:
0:[f1<-1.00136e-05] yes=1,no=2,missing=1
	1:[f5<7.9104] yes=3,no=4,missing=3
		3:[f2<32.5] yes=7,no=8,missing=7
			7:[f2<28.75] yes=15,no=16,missing=15
				15:[f5<7.7979] yes=25,no=26,missing=25
					25:[f5<7.7625] yes=35,no=36,missing=35
						35:leaf=-0.0388497
						36:leaf=0.0282278
					26:leaf=-0.084327
				16:leaf=0.012463
			8:leaf=-0.0812005
		4:[f3<2.5] yes=9,no=10,missing=9
			9:[f2<10] yes=17,no=18,missing=17
				17:leaf=0.0776359
				18:[f5<52.2771] yes=27,no=28,missing=28
					27:[f5<36.125] yes=37,no=38,missing=38
						37:leaf=-0.0139045
						38:leaf=-0.0829401
					28:[f5<59.0875] yes=39,no=40,missing=40
						39:leaf=0.0617294
						40:leaf=-0.0177741
			10:[f2<3.5] yes=19,no=20,missing=19
				19:leaf=-0.0141097
				20:leaf=-0.0779596
	2:[f0<2.5] yes=5,no=6,missing=5
		5:[f5<149.035] yes=11,no=12,missing=12
			11:[f5<28.8563] yes=21,no=22,missing=22
				21:[f2<37] yes=29,no=30,missing=29
					29:[f2<27.5] yes=41,no=42,missing=41
						41:leaf=0.0211132
						42:leaf=0.0735171
					30:[f5<25.9646] yes=43,no=44,missing=44
						43:leaf=0.019597
						44:leaf=-0.0129212
				22:leaf=0.0897888
			12:leaf=0.0100574
		6:[f5<32.8812] yes=13,no=14,missing=14
			13:[f2<5.5] yes=23,no=24,missing=23
				23:[f2<3.5] yes=31,no=32,missing=31
					31:leaf=0.000139621
					32:leaf=0.0847654
				24:[f5<13.4375] yes=33,no=34,missing=34
					33:[f2<19.5] yes=45,no=46,missing=45
						45:leaf=0.0611888
						46:leaf=-0.00571533
					34:[f5<14.8729] yes=47,no=48,missing=48
						47:leaf=-0.0851419
						48:leaf=0.000845508
			14:leaf=-0.0684166
booster[25]:
0:[f1<-1.00136e-05] yes=1,no=2,missing=1
	1:[f6<1.5] yes=3,no=4,missing=4
		3:[f2<26.5] yes=7,no=8,missing=7
			7:[f5<71.2791] yes=15,no=16,missing=16
				15:[f2<18.5] yes=29,no=30,missing=29
					29:leaf=-0.0202276
					30:[f5<15.3938] yes=47,no=48,missing=48
						47:leaf=0.00208664
						48:leaf=0.110168
				16:leaf=-0.00784025
			8:[f5<69.3542] yes=17,no=18,missing=18
				17:[f3<1.5] yes=31,no=32,missing=32
					31:leaf=0.0222063
					32:[f5<14.1604] yes=49,no=50,missing=50
						49:leaf=-0.0117542
						50:leaf=-0.0427289
				18:[f5<97.7646] yes=33,no=34,missing=34
					33:leaf=0.0709487
					34:leaf=-0.0193647
		4:[f5<7.9104] yes=9,no=10,missing=9
			9:[f5<7.8646] yes=19,no=20,missing=19
				19:[f5<7.7854] yes=35,no=36,missing=35
					35:[f2<29.5] yes=51,no=52,missing=51
						51:leaf=-0.0284917
						52:leaf=-0.0815151
					36:leaf=0.019985
				20:leaf=-0.0819144
			10:[f5<7.9875] yes=21,no=22,missing=22
				21:leaf=0.0321344
				22:[f5<26.2687] yes=37,no=38,missing=38
					37:[f2<19.5] yes=53,no=54,missing=53
						53:leaf=0.0369672
						54:leaf=-0.0494496
					38:[f5<31.8542] yes=55,no=56,missing=56
						55:leaf=0.0289869
						56:leaf=-0.0302092
	2:[f0<2.5] yes=5,no=6,missing=5
		5:[f5<149.035] yes=11,no=12,missing=12
			11:[f5<28.8563] yes=23,no=24,missing=24
				23:[f2<37] yes=39,no=40,missing=39
					39:[f2<27.5] yes=57,no=58,missing=57
						57:leaf=0.0197241
						58:leaf=0.0715497
					40:[f5<13.25] yes=59,no=60,missing=60
						59:leaf=-0.0143688
						60:leaf=0.0192085
				24:leaf=0.0880609
			12:leaf=0.00944299
		6:[f6<4.00001] yes=13,no=14,missing=14
			13:[f2<16.5] yes=25,no=26,missing=25
				25:leaf=0.070989
				26:[f2<23] yes=41,no=42,missing=41
					41:leaf=-0.0847414
					42:[f4<2.5] yes=61,no=62,missing=62
						61:leaf=-0.0252703
						62:leaf=0.0355228
			14:[f5<17.6] yes=27,no=28,missing=28
				27:[f5<10.825] yes=43,no=44,missing=44
					43:[f5<7.7625] yes=63,no=64,missing=64
						63:leaf=0.0429502
						64:leaf=-0.033425
					44:[f3<2] yes=65,no=66,missing=66
						65:leaf=0.00453634
						66:leaf=0.0892975
				28:[f2<7] yes=45,no=46,missing=45
					45:leaf=0.00419679
					46:[f2<30.5] yes=67,no=68,missing=67
						67:leaf=-0.0979414
						68:leaf=-0.00898212
booster[26]:
0:[f1<-1.00136e-05] yes=1,no=2,missing=1
	1:[f6<1.5] yes=3,no=4,missing=4
		3:[f2<26.5] yes=7,no=8,missing=7
			7:[f5<71.2791] yes=15,no=16,missing=16
				15:[f2<18.5] yes=29,no=30,missing=29
					29:leaf=-0.0192072
					30:[f5<15.3938] yes=51,no=52,missing=52
						51:leaf=0.00196111
						52:leaf=0.102929
				16:leaf=-0.00739463
			8:[f5<69.3542] yes=17,no=18,missing=18
				17:[f3<1.5] yes=31,no=32,missing=32
					31:leaf=0.0207231
					32:[f5<28.725] yes=53,no=54,missing=54
						53:leaf=-0.0402598
						54:leaf=-0.00954876
				18:[f5<97.7646] yes=33,no=34,missing=34
					33:leaf=0.0662117
					34:leaf=-0.0182415
		4:[f5<7.9104] yes=9,no=10,missing=9
			9:[f5<7.8646] yes=19,no=20,missing=19
				19:[f5<7.7854] yes=35,no=36,missing=35
					35:[f2<29.5] yes=55,no=56,missing=55
						55:leaf=-0.0264439
						56:leaf=-0.0793339
					36:leaf=0.0184825
				20:leaf=-0.0798509
			10:[f5<8.1354] yes=21,no=22,missing=22
				21:[f2<20.5] yes=37,no=38,missing=37
					37:leaf=0.124543
					38:[f2<30.75] yes=57,no=58,missing=57
						57:leaf=-0.0706637
						58:leaf=0.0383689
				22:[f2<25.5] yes=39,no=40,missing=39
					39:[f2<12.5] yes=59,no=60,missing=59
						59:leaf=0.0133363
						60:leaf=-0.0893933
					40:[f2<42.5] yes=61,no=62,missing=61
						61:leaf=0.00495245
						62:leaf=-0.0456276
	2:[f0<2.5] yes=5,no=6,missing=5
		5:[f3<1.5] yes=11,no=12,missing=12
			11:[f2<27.5] yes=23,no=24,missing=23
				23:[f2<23.5] yes=41,no=42,missing=41
					41:leaf=0.0295474
					42:leaf=-0.0621609
				24:[f2<43] yes=43,no=44,missing=43
					43:leaf=0.070787
					44:leaf=0.0160654
			12:[f5<13.25] yes=25,no=26,missing=26
				25:[f2<37] yes=45,no=46,missing=45
					45:leaf=0.0338493
					46:leaf=-0.0135335
				26:[f2<49.5] yes=47,no=48,missing=47
					47:leaf=0.0903794
					48:leaf=0.0186814
		6:[f2<38.5] yes=13,no=14,missing=13
			13:[f2<32.5] yes=27,no=28,missing=27
				27:[f6<4.00001] yes=49,no=50,missing=50
					49:[f5<15.6208] yes=63,no=64,missing=64
						63:leaf=0.00569215
						64:leaf=0.0817686
					50:[f3<3.5] yes=65,no=66,missing=66
						65:leaf=-0.0599085
						66:leaf=0.00901664
				28:leaf=0.0604221
			14:leaf=-0.05456
booster[27]:
0:[f1<-1.00136e-05] yes=1,no=2,missing=1
	1:[f0<1.5] yes=3,no=4,missing=3
		3:[f5<26.1437] yes=7,no=8,missing=7
			7:leaf=-0.0653287
			8:[f5<37] yes=15,no=16,missing=16
				15:[f2<57] yes=25,no=26,missing=25
					25:[f5<27.1354] yes=39,no=40,missing=40
						39:leaf=0.0710148
						40:leaf=0.0213636
					26:leaf=-0.0380085
				16:[f3<2.5] yes=27,no=28,missing=28
					27:[f6<1.5] yes=41,no=42,missing=42
						41:leaf=0.0441819
						42:leaf=0.000918669
					28:[f5<62.6687] yes=43,no=44,missing=44
						43:leaf=-0.0916767
						44:leaf=-0.0085575
		4:[f2<32.25] yes=9,no=10,missing=9
			9:[f2<28.75] yes=17,no=18,missing=17
				17:[f6<1.5] yes=29,no=30,missing=30
					29:[f5<15.1479] yes=45,no=46,missing=46
						45:leaf=-0.010025
						46:leaf=0.0618063
					30:[f2<9.5] yes=47,no=48,missing=47
						47:leaf=0.00660264
						48:leaf=-0.0412881
				18:[f3<4.00001] yes=31,no=32,missing=32
					31:leaf=-0.0342762
					32:[f5<7.8146] yes=49,no=50,missing=50
						49:leaf=-0.018823
						50:leaf=0.0750033
			10:[f5<13.25] yes=19,no=20,missing=20
				19:[f5<12.9375] yes=33,no=34,missing=34
					33:[f2<43.5] yes=51,no=52,missing=51
						51:leaf=-0.0716516
						52:leaf=0.0037825
					34:leaf=0.0246493
				20:leaf=-0.0886727
	2:[f0<2.5] yes=5,no=6,missing=5
		5:[f5<149.035] yes=11,no=12,missing=12
			11:[f5<28.8563] yes=21,no=22,missing=22
				21:[f2<43] yes=35,no=36,missing=35
					35:[f2<27.5] yes=53,no=54,missing=53
						53:leaf=0.0168404
						54:leaf=0.0565525
					36:[f5<25.9646] yes=55,no=56,missing=56
						55:leaf=0.0237509
						56:leaf=-0.0265024
				22:leaf=0.0853434
			12:leaf=0.00563528
		6:[f5<32.8812] yes=13,no=14,missing=14
			13:[f2<5.5] yes=23,no=24,missing=23
				23:leaf=0.043327
				24:[f2<14.75] yes=37,no=38,missing=37
					37:leaf=-0.053109
					38:[f2<17.5] yes=57,no=58,missing=57
						57:leaf=0.0624777
						58:leaf=-0.00247013
			14:leaf=-0.0633442
booster[28]:
0:[f1<-1.00136e-05] yes=1,no=2,missing=1
	1:[f0<1.5] yes=3,no=4,missing=3
		3:[f5<26.1437] yes=7,no=8,missing=7
			7:leaf=-0.0633322
			8:[f5<37] yes=15,no=16,missing=16
				15:[f2<36.5] yes=27,no=28,missing=27
					27:[f2<31] yes=49,no=50,missing=49
						49:leaf=0.028151
						50:leaf=0.0917021
					28:[f5<29.85] yes=51,no=52,missing=52
						51:leaf=-0.0359034
						52:leaf=0.0334383
				16:[f3<2.5] yes=29,no=30,missing=30
					29:[f2<49.5] yes=53,no=54,missing=53
						53:leaf=0.027086
						54:leaf=-0.0175136
					30:[f5<62.6687] yes=55,no=56,missing=56
						55:leaf=-0.0884208
						56:leaf=-0.00789966
		4:[f2<32.25] yes=9,no=10,missing=9
			9:[f2<30.75] yes=17,no=18,missing=17
				17:[f6<1.5] yes=31,no=32,missing=32
					31:[f4<1.5] yes=57,no=58,missing=58
						57:leaf=0.0670563
						58:leaf=-0.00631214
					32:[f5<7.0104] yes=59,no=60,missing=59
						59:leaf=0.023006
						60:leaf=-0.0330636
				18:[f5<11.75] yes=33,no=34,missing=34
					33:leaf=0.0171156
					34:leaf=0.070613
			10:[f5<13.25] yes=19,no=20,missing=20
				19:[f5<7.9104] yes=35,no=36,missing=36
					35:leaf=-0.0707466
					36:[f2<38.5] yes=61,no=62,missing=61
						61:leaf=-0.0463295
						62:leaf=0.0237551
				20:leaf=-0.0863928
	2:[f0<2.5] yes=5,no=6,missing=5
		5:[f3<1.5] yes=11,no=12,missing=12
			11:[f2<27.5] yes=21,no=22,missing=21
				21:[f2<23.5] yes=37,no=38,missing=37
					37:leaf=0.0260983
					38:leaf=-0.0596489
				22:[f2<43] yes=39,no=40,missing=39
					39:leaf=0.0670172
					40:leaf=0.0136488
			12:[f5<13.25] yes=23,no=24,missing=24
				23:[f2<37] yes=41,no=42,missing=41
					41:leaf=0.0305179
					42:leaf=-0.015049
				24:[f2<49.5] yes=43,no=44,missing=43
					43:leaf=0.0877643
					44:leaf=0.0175314
		6:[f5<32.8812] yes=13,no=14,missing=14
			13:[f2<5.5] yes=25,no=26,missing=25
				25:[f2<2.5] yes=45,no=46,missing=45
					45:leaf=0.014888
					46:leaf=0.0492463
				26:[f2<14.75] yes=47,no=48,missing=47
					47:leaf=-0.050091
					48:[f2<17.5] yes=63,no=64,missing=63
						63:leaf=0.0593474
						64:leaf=-0.00223384
			14:leaf=-0.0614488
booster[29]:
0:[f1<-1.00136e-05] yes=1,no=2,missing=1
	1:[f5<7.9104] yes=3,no=4,missing=3
		3:[f2<29.5] yes=7,no=8,missing=7
			7:[f2<19.5] yes=15,no=16,missing=15
				15:leaf=-0.0740329
				16:[f5<7.7979] yes=25,no=26,missing=25
					25:[f2<27.5] yes=33,no=34,missing=33
						33:leaf=0.0365454
						34:leaf=-0.0258684
					26:leaf=-0.0520576
			8:[f5<7.8146] yes=17,no=18,missing=18
				17:leaf=-0.0779929
				18:leaf=-0.0183164
		4:[f3<2.5] yes=9,no=10,missing=9
			9:[f2<10] yes=19,no=20,missing=19
				19:leaf=0.0751007
				20:[f2<24.75] yes=27,no=28,missing=27
					27:[f2<20.5] yes=35,no=36,missing=35
						35:leaf=0.0173791
						36:leaf=-0.0828353
					28:[f2<27.5] yes=37,no=38,missing=37
						37:leaf=0.0465456
						38:leaf=-0.00918728
			10:leaf=-0.0615774
	2:[f0<2.5] yes=5,no=6,missing=5
		5:[f5<149.035] yes=11,no=12,missing=12
			11:[f5<28.8563] yes=21,no=22,missing=22
				21:[f2<23.5] yes=29,no=30,missing=29
					29:leaf=0.060733
					30:[f2<27.5] yes=39,no=40,missing=39
						39:leaf=-0.0288099
						40:leaf=0.0305133
				22:leaf=0.0826919
			12:leaf=0.00225192
		6:[f2<38.5] yes=13,no=14,missing=13
			13:[f2<32.5] yes=23,no=24,missing=23
				23:[f6<4.00001] yes=31,no=32,missing=32
					31:[f5<15.6208] yes=41,no=42,missing=42
						41:leaf=0.00487356
						42:leaf=0.0783701
					32:[f5<17.25] yes=43,no=44,missing=44
						43:leaf=0.00641491
						44:leaf=-0.0634109
				24:leaf=0.0576494
			14:leaf=-0.0505633
booster[30]:
0:[f1<-1.00136e-05] yes=1,no=2,missing=1
	1:[f5<7.74585] yes=3,no=4,missing=4
		3:[f5<7.2396] yes=7,no=8,missing=8
			7:[f2<27.5] yes=15,no=16,missing=15
				15:[f5<7.13335] yes=25,no=26,missing=26
					25:leaf=-0.0270125
					26:leaf=0.0431765
				16:leaf=-0.0492122
			8:leaf=-0.0766009
		4:[f3<2.5] yes=9,no=10,missing=9
			9:[f2<10] yes=17,no=18,missing=17
				17:leaf=0.0728897
				18:[f2<24.75] yes=27,no=28,missing=27
					27:[f2<20.5] yes=39,no=40,missing=39
						39:leaf=-0.00105556
						40:leaf=-0.0696758
					28:[f2<27.5] yes=41,no=42,missing=41
						41:leaf=0.0529841
						42:leaf=-0.0115886
			10:leaf=-0.0589715
	2:[f0<2.5] yes=5,no=6,missing=5
		5:[f3<1.5] yes=11,no=12,missing=12
			11:[f2<27.5] yes=19,no=20,missing=19
				19:[f2<23.5] yes=29,no=30,missing=29
					29:leaf=0.022228
					30:leaf=-0.0551386
				20:[f2<43] yes=31,no=32,missing=31
					31:leaf=0.0637086
					32:leaf=0.0105252
			12:[f5<13.25] yes=21,no=22,missing=22
				21:[f2<37] yes=33,no=34,missing=33
					33:leaf=0.0281602
					34:leaf=-0.01595
				22:[f2<49.5] yes=35,no=36,missing=35
					35:leaf=0.0852459
					36:leaf=0.0150367
		6:[f2<38.5] yes=13,no=14,missing=13
			13:[f2<32.5] yes=23,no=24,missing=23
				23:[f6<4.00001] yes=37,no=38,missing=38
					37:[f2<16.5] yes=43,no=44,missing=43
						43:leaf=0.0644731
						44:leaf=0.000644738
					38:[f3<3.5] yes=45,no=46,missing=46
						45:leaf=-0.0535484
						46:leaf=0.00905307
				24:leaf=0.0548145
			14:leaf=-0.0481844
booster[31]:
0:[f1<-1.00136e-05] yes=1,no=2,missing=1
	1:[f5<29.4125] yes=3,no=4,missing=3
		3:[f5<26.775] yes=7,no=8,missing=7
			7:[f5<26.2687] yes=15,no=16,missing=15
				15:[f2<32.5] yes=25,no=26,missing=25
					25:[f2<28.75] yes=37,no=38,missing=37
						37:leaf=-0.0211885
						38:leaf=0.037625
					26:[f5<13.25] yes=39,no=40,missing=40
						39:leaf=-0.026468
						40:leaf=-0.0819955
				16:[f2<49.5] yes=27,no=28,missing=27
					27:leaf=0.0684795
					28:leaf=-0.0305237
			8:leaf=-0.092532
		4:[f5<30.5979] yes=9,no=10,missing=10
			9:[f2<28.5] yes=17,no=18,missing=17
				17:leaf=0.108965
				18:leaf=0.00630415
			10:[f5<52.2771] yes=19,no=20,missing=20
				19:[f5<36.8771] yes=29,no=30,missing=30
					29:[f5<35.25] yes=41,no=42,missing=42
						41:leaf=-0.0390959
						42:leaf=0.0942782
					30:[f2<39] yes=43,no=44,missing=43
						43:leaf=-0.0858525
						44:leaf=-0.0191897
				20:[f5<59.0875] yes=31,no=32,missing=32
					31:[f5<56.1979] yes=45,no=46,missing=46
						45:leaf=0.0122164
						46:leaf=0.0774759
					32:[f6<1.5] yes=47,no=48,missing=48
						47:leaf=0.0165964
						48:leaf=-0.0469158
	2:[f0<2.5] yes=5,no=6,missing=5
		5:[f5<149.035] yes=11,no=12,missing=12
			11:[f5<28.8563] yes=21,no=22,missing=22
				21:[f2<37] yes=33,no=34,missing=33
					33:[f2<27.5] yes=49,no=50,missing=49
						49:leaf=0.0127517
						50:leaf=0.0633042
					34:[f2<44.5] yes=51,no=52,missing=51
						51:leaf=-0.0218327
						52:leaf=0.0139415
				22:leaf=0.0800976
			12:leaf=-0.000730676
		6:[f2<38.5] yes=13,no=14,missing=13
			13:[f2<32.5] yes=23,no=24,missing=23
				23:[f6<4.00001] yes=35,no=36,missing=36
					35:[f5<15.6208] yes=53,no=54,missing=54
						53:leaf=0.00317165
						54:leaf=0.0750757
					36:[f5<17.25] yes=55,no=56,missing=56
						55:leaf=0.00642684
						56:leaf=-0.0578978
				24:leaf=0.0521492
			14:leaf=-0.0459212
booster[32]:
0:[f1<-1.00136e-05] yes=1,no=2,missing=1
	1:[f5<7.9104] yes=3,no=4,missing=3
		3:[f2<29.5] yes=7,no=8,missing=7
			7:[f2<19.5] yes=15,no=16,missing=15
				15:leaf=-0.0713622
				16:[f5<7.7979] yes=31,no=32,missing=31
					31:[f5<7.74585] yes=47,no=48,missing=47
						47:leaf=-0.0151539
						48:leaf=0.0461836
					32:leaf=-0.048908
			8:[f5<7.8146] yes=17,no=18,missing=18
				17:leaf=-0.0750955
				18:leaf=-0.0164126
		4:[f3<2.5] yes=9,no=10,missing=9
			9:[f2<10] yes=19,no=20,missing=19
				19:leaf=0.0712059
				20:[f5<8.1354] yes=33,no=34,missing=34
					33:[f2<20.5] yes=49,no=50,missing=49
						49:leaf=0.120292
						50:leaf=-0.0132592
					34:[f2<24.5] yes=51,no=52,missing=51
						51:leaf=-0.0495212
						52:leaf=-0.00202914
			10:[f5<35.5375] yes=21,no=22,missing=22
				21:leaf=-0.0171366
				22:leaf=-0.0647605
	2:[f0<2.5] yes=5,no=6,missing=5
		5:[f3<1.5] yes=11,no=12,missing=12
			11:[f2<27.5] yes=23,no=24,missing=23
				23:[f2<23.5] yes=35,no=36,missing=35
					35:leaf=0.0194324
					36:leaf=-0.0528147
				24:[f2<43] yes=37,no=38,missing=37
					37:leaf=0.060422
					38:leaf=0.0083586
			12:[f5<13.25] yes=25,no=26,missing=26
				25:[f2<37] yes=39,no=40,missing=39
					39:leaf=0.0250056
					40:leaf=-0.0148265
				26:[f2<49.5] yes=41,no=42,missing=41
					41:leaf=0.0828671
					42:leaf=0.0132446
		6:[f2<5.5] yes=13,no=14,missing=13
			13:[f2<2.5] yes=27,no=28,missing=27
				27:leaf=0.0121377
				28:leaf=0.0504624
			14:[f5<13.4375] yes=29,no=30,missing=30
				29:[f2<19.5] yes=43,no=44,missing=43
					43:[f5<7.8667] yes=53,no=54,missing=54
						53:leaf=-0.012297
						54:leaf=0.111719
					44:[f2<25.5] yes=55,no=56,missing=55
						55:leaf=-0.0467413
						56:leaf=0.0151752
				30:[f2<22.5] yes=45,no=46,missing=45
					45:leaf=-0.0751181
					46:[f5<14.8729] yes=57,no=58,missing=58
						57:leaf=-0.0881879
						58:leaf=0.0197666
booster[33]:
0:[f6<1.5] yes=1,no=2,missing=2
	1:[f2<49.5] yes=3,no=4,missing=3
		3:[f5<45.5396] yes=7,no=8,missing=8
			7:[f2<29.5] yes=15,no=16,missing=15
				15:[f5<14.1583] yes=25,no=26,missing=26
					25:[f5<7.5625] yes=41,no=42,missing=42
						41:leaf=0.0180166
						42:leaf=0.105729
					26:[f4<6.00001] yes=43,no=44,missing=44
						43:leaf=0.0650001
						44:leaf=-0.0505645
				16:[f5<29.8854] yes=27,no=28,missing=28
					27:leaf=-0.0627403
					28:leaf=0.0179441
			8:[f5<77.9646] yes=17,no=18,missing=18
				17:leaf=0.107507
				18:[f2<29] yes=29,no=30,missing=29
					29:[f2<23.5] yes=45,no=46,missing=45
						45:leaf=0.0179595
						46:leaf=-0.0421723
					30:leaf=0.0579648
		4:[f5<61.6792] yes=9,no=10,missing=10
			9:leaf=-0.0463104
			10:leaf=0.00428593
	2:[f1<-1.00136e-05] yes=5,no=6,missing=5
		5:[f5<7.9104] yes=11,no=12,missing=12
			11:[f5<7.8646] yes=19,no=20,missing=20
				19:[f5<7.74585] yes=31,no=32,missing=32
					31:[f5<7.19585] yes=47,no=48,missing=48
						47:leaf=-0.0104596
						48:leaf=-0.0734002
					32:[f2<24.5] yes=49,no=50,missing=49
						49:leaf=-0.0283686
						50:leaf=0.0185299
				20:leaf=-0.0739804
			12:[f5<8.1354] yes=21,no=22,missing=22
				21:[f2<20.5] yes=33,no=34,missing=33
					33:leaf=0.109236
					34:[f2<30.75] yes=51,no=52,missing=51
						51:leaf=-0.0621029
						52:leaf=0.0380734
				22:[f2<24.5] yes=35,no=36,missing=35
					35:[f2<12.5] yes=53,no=54,missing=53
						53:leaf=0.0194724
						54:leaf=-0.0790608
					36:[f2<27.5] yes=55,no=56,missing=55
						55:leaf=0.0500677
						56:leaf=-0.0145807
		6:[f2<48.5] yes=13,no=14,missing=13
			13:[f2<36.5] yes=23,no=24,missing=23
				23:[f2<32.25] yes=37,no=38,missing=37
					37:[f3<3.5] yes=57,no=58,missing=58
						57:leaf=-0.0264806
						58:leaf=0.0117215
					38:leaf=0.0720302
				24:[f5<31.3312] yes=39,no=40,missing=40
					39:[f0<2.5] yes=59,no=60,missing=59
						59:leaf=-0.0114177
						60:leaf=-0.0757995
					40:leaf=0.0221775
			14:leaf=0.0674808
booster[34]:
0:[f5<7.13335] yes=1,no=2,missing=2
	1:[f2<24.5] yes=3,no=4,missing=3
		3:leaf=-0.0847658
		4:leaf=-0.0176828
	2:[f6<1.5] yes=5,no=6,missing=6
		5:[f2<49.5] yes=7,no=8,missing=7
			7:[f5<45.5396] yes=11,no=12,missing=12
				11:[f2<29.5] yes=19,no=20,missing=19
					19:[f5<14.1583] yes=29,no=30,missing=30
						29:leaf=0.0617258
						30:leaf=-0.000806769
					20:[f0<1.5] yes=31,no=32,missing=31
						31:leaf=0.00713542
						32:leaf=-0.0696075
				12:[f5<77.9646] yes=21,no=22,missing=22
					21:leaf=0.102608
					22:[f2<29] yes=33,no=34,missing=33
						33:leaf=-0.0186215
						34:leaf=0.0545556
			8:[f5<61.6792] yes=13,no=14,missing=14
				13:leaf=-0.0441476
				14:leaf=0.00406166
		6:[f1<-1.00136e-05] yes=9,no=10,missing=9
			9:[f4<1.5] yes=15,no=16,missing=16
				15:[f3<2.5] yes=23,no=24,missing=24
					23:[f2<18.5] yes=35,no=36,missing=35
						35:leaf=0.03244
						36:leaf=-0.0395365
					24:leaf=-0.0746156
				16:[f5<26.1437] yes=25,no=26,missing=25
					25:[f5<13.25] yes=37,no=38,missing=37
						37:leaf=-0.00953814
						38:leaf=-0.0573648
					26:[f5<31.8542] yes=39,no=40,missing=40
						39:leaf=0.0379298
						40:leaf=-0.0116221
			10:[f2<48.5] yes=17,no=18,missing=17
				17:[f2<36.5] yes=27,no=28,missing=27
					27:[f2<32.25] yes=41,no=42,missing=41
						41:leaf=0.000936658
						42:leaf=0.0699071
					28:[f5<31.3312] yes=43,no=44,missing=44
						43:leaf=-0.0527214
						44:leaf=0.0210737
				18:leaf=0.0645504
booster[35]:
0:[f5<7.13335] yes=1,no=2,missing=2
	1:leaf=-0.0625642
	2:[f1<-1.00136e-05] yes=3,no=4,missing=3
		3:[f3<2.5] yes=5,no=6,missing=5
			5:[f2<13.5] yes=9,no=10,missing=9
				9:leaf=0.0599329
				10:[f6<1.5] yes=17,no=18,missing=18
					17:[f2<23.25] yes=23,no=24,missing=23
						23:leaf=0.0476413
						24:leaf=-0.00143459
					18:[f4<10] yes=25,no=26,missing=26
						25:leaf=-0.0577618
						26:leaf=-0.00926516
			6:[f2<5.5] yes=11,no=12,missing=11
				11:leaf=-0.0149686
				12:leaf=-0.0614409
		4:[f0<2.5] yes=7,no=8,missing=7
			7:[f5<149.035] yes=13,no=14,missing=14
				13:[f5<28.8563] yes=19,no=20,missing=20
					19:[f2<23.5] yes=27,no=28,missing=27
						27:leaf=0.056027
						28:leaf=0.00560837
					20:leaf=0.0764816
				14:leaf=-0.00422706
			8:[f5<7.5229] yes=15,no=16,missing=16
				15:leaf=0.0752568
				16:[f2<5.5] yes=21,no=22,missing=21
					21:[f2<2.5] yes=29,no=30,missing=29
						29:leaf=0.0105777
						30:leaf=0.0472717
					22:[f2<14.75] yes=31,no=32,missing=31
						31:leaf=-0.0633401
						32:leaf=-0.00333262
booster[36]:
0:[f5<7.13335] yes=1,no=2,missing=2
	1:leaf=-0.0600274
	2:[f1<-1.00136e-05] yes=3,no=4,missing=3
		3:[f3<2.5] yes=5,no=6,missing=5
			5:[f2<10] yes=9,no=10,missing=9
				9:leaf=0.0665972
				10:[f5<29.1] yes=15,no=16,missing=15
					15:[f5<26.775] yes=21,no=22,missing=21
						21:leaf=-0.00963597
						22:leaf=-0.0865154
					16:[f5<30.5979] yes=23,no=24,missing=24
						23:leaf=0.0638419
						24:leaf=-0.00481789
			6:[f5<35.5375] yes=11,no=12,missing=12
				11:leaf=-0.0143789
				12:leaf=-0.0603027
		4:[f5<7.5229] yes=7,no=8,missing=8
			7:leaf=0.0725921
			8:[f0<2.5] yes=13,no=14,missing=13
				13:[f3<1.5] yes=17,no=18,missing=18
					17:[f6<4.00001] yes=25,no=26,missing=26
						25:leaf=0.058157
						26:leaf=-0.0151279
					18:[f5<13.25] yes=27,no=28,missing=28
						27:leaf=0.00385553
						28:leaf=0.0677726
				14:[f2<5.5] yes=19,no=20,missing=19
					19:[f2<2.5] yes=29,no=30,missing=29
						29:leaf=0.010006
						30:leaf=0.045075
					20:[f2<14.75] yes=31,no=32,missing=31
						31:leaf=-0.0602922
						32:leaf=-0.00301371
booster[37]:
0:[f5<7.13335] yes=1,no=2,missing=2
	1:leaf=-0.0575682
	2:[f6<1.5] yes=3,no=4,missing=4
		3:[f2<49.5] yes=5,no=6,missing=5
			5:[f5<15.1479] yes=9,no=10,missing=10
				9:[f5<14.1583] yes=15,no=16,missing=16
					15:[f5<9.9771] yes=21,no=22,missing=22
						21:leaf=0.00785855
						22:leaf=0.0902394
					16:leaf=-0.0725472
				10:[f5<20.4688] yes=17,no=18,missing=18
					17:[f2<22] yes=23,no=24,missing=23
						23:leaf=0.00862889
						24:leaf=0.0990031
					18:[f5<28.725] yes=25,no=26,missing=26
						25:leaf=-0.0312397
						26:leaf=0.0354625
			6:[f5<61.6792] yes=11,no=12,missing=12
				11:leaf=-0.0433262
				12:leaf=0.00262198
		4:[f5<143.592] yes=7,no=8,missing=7
			7:[f5<84.9875] yes=13,no=14,missing=13
				13:[f5<65.8] yes=19,no=20,missing=19
					19:[f5<56.1979] yes=27,no=28,missing=27
						27:leaf=-0.00520729
						28:leaf=0.0553244
					20:leaf=-0.0700959
				14:leaf=0.0858581
			8:leaf=-0.0506839
booster[38]:
0:[f5<7.13335] yes=1,no=2,missing=2
	1:leaf=-0.055186
	2:[f1<-1.00136e-05] yes=3,no=4,missing=3
		3:[f5<387.665] yes=5,no=6,missing=6
			5:[f5<134.642] yes=9,no=10,missing=10
				9:[f5<86.2896] yes=13,no=14,missing=14
					13:[f5<77.0083] yes=19,no=20,missing=20
						19:leaf=-0.00592389
						20:leaf=-0.056663
					14:[f2<41] yes=21,no=22,missing=21
						21:leaf=0.0892266
						22:leaf=-0.011669
				10:leaf=-0.0811595
			6:leaf=0.0400248
		4:[f5<7.5229] yes=7,no=8,missing=8
			7:leaf=0.0700384
			8:[f0<2.5] yes=11,no=12,missing=11
				11:[f2<27.5] yes=15,no=16,missing=15
					15:[f2<24.5] yes=23,no=24,missing=23
						23:leaf=0.0422556
						24:leaf=-0.0605095
					16:[f2<43.5] yes=25,no=26,missing=25
						25:leaf=0.0636898
						26:leaf=0.0112749
				12:[f2<5.5] yes=17,no=18,missing=17
					17:[f2<2.5] yes=27,no=28,missing=27
						27:leaf=0.00954633
						28:leaf=0.0427967
					18:[f2<14.75] yes=29,no=30,missing=29
						29:leaf=-0.05779
						30:leaf=-0.00203413
booster[39]:
0:[f5<254.948] yes=1,no=2,missing=1
	1:[f5<135.067] yes=3,no=4,missing=3
		3:[f5<84.9875] yes=5,no=6,missing=5
			5:[f2<6.5] yes=9,no=10,missing=9
				9:[f3<2.5] yes=13,no=14,missing=13
					13:leaf=0.0675685
					14:leaf=-0.0172656
				10:[f5<6.9625] yes=15,no=16,missing=15
					15:leaf=-0.0537309
					16:[f3<1.5] yes=19,no=20,missing=19
						19:leaf=-0.00154967
						20:leaf=-0.0398665
			6:[f6<4.00001] yes=11,no=12,missing=12
				11:[f5<107.663] yes=17,no=18,missing=18
					17:leaf=0.0191313
					18:leaf=-0.0146441
				12:leaf=0.101656
		4:[f2<27.5] yes=7,no=8,missing=7
			7:leaf=-0.0862969
			8:leaf=-0.00466512
	2:leaf=0.0603341
booster[40]:
0:[f5<7.13335] yes=1,no=2,missing=2
	1:leaf=-0.0517635
	2:[f5<254.948] yes=3,no=4,missing=3
		3:[f5<135.067] yes=5,no=6,missing=5
			5:[f5<84.9875] yes=7,no=8,missing=7
				7:[f2<6.5] yes=11,no=12,missing=11
					11:[f3<2.5] yes=15,no=16,missing=15
						15:leaf=0.0647521
						16:leaf=-0.0162486
					12:[f3<1.5] yes=17,no=18,missing=17
						17:leaf=-0.00136811
						18:leaf=-0.0372439
				8:[f2<42.5] yes=13,no=14,missing=13
					13:leaf=0.0847623
					14:leaf=-0.0110185
			6:[f2<27.5] yes=9,no=10,missing=9
				9:leaf=-0.0811384
				10:leaf=-0.00440641
		4:leaf=0.0572282
booster[41]:
0:[f5<6.9625] yes=1,no=2,missing=1
	1:leaf=-0.0503856
	2:[f1<-1.00136e-05] yes=3,no=4,missing=3
		3:[f2<49.5] yes=5,no=6,missing=5
			5:[f2<47.5] yes=9,no=10,missing=9
				9:[f2<45.25] yes=15,no=16,missing=15
					15:[f3<1.5] yes=25,no=26,missing=25
						25:leaf=0.00142303
						26:leaf=-0.0461101
					16:leaf=-0.0783137
				10:leaf=0.0692828
			6:[f5<29.85] yes=11,no=12,missing=12
				11:[f5<11.425] yes=17,no=18,missing=18
					17:leaf=-0.00957137
					18:leaf=-0.0570259
				12:[f5<37.25] yes=19,no=20,missing=20
					19:leaf=0.042487
					20:[f5<78.2437] yes=27,no=28,missing=28
						27:leaf=-0.0711045
						28:leaf=0.0060296
		4:[f5<7.5229] yes=7,no=8,missing=8
			7:leaf=0.0677852
			8:[f0<2.5] yes=13,no=14,missing=13
				13:[f3<1.5] yes=21,no=22,missing=22
					21:[f2<27.5] yes=29,no=30,missing=29
						29:leaf=-0.0232443
						30:leaf=0.0407638
					22:[f5<13.25] yes=31,no=32,missing=32
						31:leaf=0.00117238
						32:leaf=0.0644463
				14:[f6<4.00001] yes=23,no=24,missing=24
					23:[f5<15.3729] yes=33,no=34,missing=34
						33:leaf=-0.00263939
						34:leaf=0.0532906
					24:[f5<17.6] yes=35,no=36,missing=36
						35:leaf=0.00190438
						36:leaf=-0.0424362
booster[42]:
0:[f5<7.13335] yes=1,no=2,missing=2
	1:leaf=-0.0485723
	2:[f5<254.948] yes=3,no=4,missing=3
		3:[f5<135.067] yes=5,no=6,missing=5
			5:[f5<84.9875] yes=7,no=8,missing=7
				7:[f2<6.5] yes=11,no=12,missing=11
					11:[f3<2.5] yes=15,no=16,missing=15
						15:leaf=0.0620052
						16:leaf=-0.0126539
					12:[f6<4.00001] yes=17,no=18,missing=18
						17:leaf=0.0085197
						18:leaf=-0.00802389
				8:[f6<4.00001] yes=13,no=14,missing=14
					13:[f5<107.663] yes=19,no=20,missing=20
						19:leaf=0.0166974
						20:leaf=-0.0174738
					14:leaf=0.0949573
			6:[f2<27.5] yes=9,no=10,missing=9
				9:leaf=-0.076218
				10:leaf=-0.00599079
		4:leaf=0.054017
booster[43]:
0:[f5<7.78125] yes=1,no=2,missing=1
	1:[f2<29.5] yes=3,no=4,missing=3
		3:[f2<21.5] yes=7,no=8,missing=7
			7:[f5<7.74165] yes=13,no=14,missing=14
				13:[f1<-1.00136e-05] yes=19,no=20,missing=19
					19:leaf=-0.0225531
					20:leaf=0.0258521
				14:leaf=-0.0845155
			8:[f2<24.5] yes=15,no=16,missing=15
				15:[f1<-1.00136e-05] yes=21,no=22,missing=21
					21:leaf=0.0140313
					22:leaf=0.0817583
				16:[f5<7.73125] yes=23,no=24,missing=24
					23:[f5<7.2396] yes=29,no=30,missing=30
						29:leaf=0.00408002
						30:leaf=-0.0957653
					24:[f5<7.7625] yes=31,no=32,missing=31
						31:leaf=0.0238106
						32:leaf=0.00388751
		4:leaf=-0.0913001
	2:[f5<7.88335] yes=5,no=6,missing=6
		5:[f2<25] yes=9,no=10,missing=9
			9:leaf=0.00384792
			10:leaf=0.056934
		6:[f5<7.9104] yes=11,no=12,missing=12
			11:leaf=-0.0552617
			12:[f5<8.0396] yes=17,no=18,missing=18
				17:[f2<25.5] yes=25,no=26,missing=25
					25:leaf=-0.00997669
					26:leaf=0.0646583
				18:[f3<2.5] yes=27,no=28,missing=27
					27:[f2<19.5] yes=33,no=34,missing=33
						33:leaf=0.0357711
						34:leaf=-0.00320001
					28:[f4<1.5] yes=35,no=36,missing=36
						35:leaf=-0.0764514
						36:leaf=0.000819607
booster[44]:
0:[f5<6.9625] yes=1,no=2,missing=1
	1:leaf=-0.0467939
	2:[f5<254.948] yes=3,no=4,missing=4
		3:[f5<135.067] yes=5,no=6,missing=6
			5:[f5<52.2771] yes=7,no=8,missing=8
				7:[f5<36.8771] yes=11,no=12,missing=12
					11:[f5<35.25] yes=15,no=16,missing=16
						15:leaf=-0.00132507
						16:leaf=0.0928887
					12:[f3<3] yes=17,no=18,missing=18
						17:leaf=-0.0136874
						18:leaf=-0.0777696
				8:[f2<43] yes=13,no=14,missing=13
					13:[f5<65.8] yes=19,no=20,missing=20
						19:leaf=0.0705505
						20:leaf=0.00956527
					14:[f6<1.5] yes=21,no=22,missing=22
						21:leaf=0.0104082
						22:leaf=-0.0380792
			6:[f2<27.5] yes=9,no=10,missing=9
				9:leaf=-0.0725765
				10:leaf=-0.0054857
		4:leaf=0.0513016
booster[45]:
0:[f6<1.5] yes=1,no=2,missing=2
	1:[f2<49.5] yes=3,no=4,missing=3
		3:[f5<15.1479] yes=7,no=8,missing=8
			7:[f5<14.1583] yes=15,no=16,missing=16
				15:[f5<9.9771] yes=27,no=28,missing=28
					27:[f2<22.75] yes=43,no=44,missing=43
						43:leaf=0.0367276
						44:leaf=-0.017997
					28:leaf=0.0857114
				16:leaf=-0.0693616
			8:[f5<27.1354] yes=17,no=18,missing=18
				17:[f4<6.00001] yes=29,no=30,missing=30
					29:leaf=0.0790687
					30:leaf=0.00449997
				18:[f5<28.725] yes=31,no=32,missing=32
					31:leaf=-0.0617023
					32:[f4<1.5] yes=45,no=46,missing=46
						45:leaf=-0.0108317
						46:leaf=0.0411907
		4:[f5<61.6792] yes=9,no=10,missing=10
			9:leaf=-0.0423206
			10:leaf=0.00275646
	2:[f2<26.5] yes=5,no=6,missing=5
		5:[f2<19.5] yes=11,no=12,missing=11
			11:[f5<17.25] yes=19,no=20,missing=20
				19:[f5<7.8667] yes=33,no=34,missing=34
					33:[f5<7.7625] yes=47,no=48,missing=48
						47:leaf=-0.0139192
						48:leaf=-0.0530179
					34:[f5<8.10415] yes=49,no=50,missing=50
						49:leaf=0.11487
						50:leaf=0.0309886
				20:[f4<1.5] yes=35,no=36,missing=35
					35:[f0<2.5] yes=51,no=52,missing=51
						51:leaf=0.0124633
						52:leaf=-0.0837021
					36:[f5<32.8812] yes=53,no=54,missing=54
						53:leaf=0.0443479
						54:leaf=-0.0377802
			12:[f5<7.87085] yes=21,no=22,missing=21
				21:[f5<7.7854] yes=37,no=38,missing=38
					37:[f2<24.5] yes=55,no=56,missing=55
						55:leaf=0.026049
						56:leaf=-0.0407283
					38:leaf=0.0541751
				22:[f5<16.4] yes=39,no=40,missing=40
					39:[f5<7.9875] yes=57,no=58,missing=58
						57:leaf=-0.0277269
						58:leaf=-0.097151
					40:[f3<2.5] yes=59,no=60,missing=60
						59:leaf=-0.0370369
						60:leaf=0.043692
		6:[f2<27.5] yes=13,no=14,missing=13
			13:[f5<12.7375] yes=23,no=24,missing=24
				23:leaf=0.158004
				24:leaf=-0.0104942
			14:[f5<7.73125] yes=25,no=26,missing=25
				25:leaf=-0.0968386
				26:[f4<12] yes=41,no=42,missing=42
					41:[f2<30.5] yes=61,no=62,missing=61
						61:leaf=-0.0986177
						62:leaf=-0.00359732
					42:[f5<8.6729] yes=63,no=64,missing=64
						63:leaf=-0.0128419
						64:leaf=0.0193528
booster[46]:
0:[f5<387.665] yes=1,no=2,missing=2
	1:[f5<135.067] yes=3,no=4,missing=4
		3:[f5<84.9875] yes=5,no=6,missing=6
			5:[f2<5.5] yes=9,no=10,missing=9
				9:[f2<2.5] yes=13,no=14,missing=13
					13:[f5<20.825] yes=19,no=20,missing=20
						19:leaf=0.0181445
						20:leaf=-0.027492
					14:leaf=0.0658466
				10:[f2<11.5] yes=15,no=16,missing=15
					15:leaf=-0.0413626
					16:[f1<-1.00136e-05] yes=21,no=22,missing=21
						21:leaf=-0.0080154
						22:leaf=0.0076497
			6:[f6<4.00001] yes=11,no=12,missing=12
				11:[f5<107.663] yes=17,no=18,missing=18
					17:leaf=0.0146096
					18:leaf=-0.0189778
				12:leaf=0.0910259
		4:[f1<-1.00136e-05] yes=7,no=8,missing=7
			7:leaf=-0.0726051
			8:leaf=6.18928e-05
	2:leaf=0.0452545
booster[47]:
0:[f5<7.13335] yes=1,no=2,missing=2
	1:leaf=-0.0442871
	2:[f2<36.25] yes=3,no=4,missing=3
		3:[f2<30.75] yes=5,no=6,missing=5
			5:[f6<4.00001] yes=9,no=10,missing=10
				9:[f5<23.625] yes=17,no=18,missing=18
					17:[f5<15.1479] yes=29,no=30,missing=30
						29:leaf=0.00724272
						30:leaf=0.0783499
					18:[f2<27.5] yes=31,no=32,missing=31
						31:leaf=0.0230428
						32:leaf=-0.0454368
				10:[f2<27.5] yes=19,no=20,missing=19
					19:[f2<26.5] yes=33,no=34,missing=33
						33:leaf=-0.00927991
						34:leaf=0.0759335
					20:[f5<8.08125] yes=35,no=36,missing=35
						35:leaf=-0.0858908
						36:leaf=-0.00327555
			6:[f5<12.9375] yes=11,no=12,missing=11
				11:[f2<32.5] yes=21,no=22,missing=21
					21:[f5<7.9104] yes=37,no=38,missing=38
						37:leaf=-0.0235946
						38:leaf=0.0479647
					22:leaf=-0.0634823
				12:[f3<2.5] yes=23,no=24,missing=24
					23:[f5<20.3875] yes=39,no=40,missing=40
						39:leaf=-0.0342859
						40:leaf=0.0192369
					24:leaf=0.108724
		4:[f5<29.85] yes=7,no=8,missing=7
			7:[f5<26.775] yes=13,no=14,missing=14
				13:[f2<41.5] yes=25,no=26,missing=25
					25:[f5<9.53125] yes=41,no=42,missing=42
						41:leaf=-0.0135067
						42:leaf=-0.0645148
					26:[f2<42.5] yes=43,no=44,missing=43
						43:leaf=0.0603708
						44:leaf=-0.00918365
				14:leaf=-0.0904745
			8:[f5<31.8542] yes=15,no=16,missing=16
				15:leaf=0.0630581
				16:[f3<4.00001] yes=27,no=28,missing=28
					27:[f6<1.5] yes=45,no=46,missing=46
						45:leaf=0.0477413
						46:leaf=-0.00292699
					28:[f2<55] yes=47,no=48,missing=47
						47:leaf=-0.0595986
						48:leaf=-0.00562786
booster[48]:
0:[f5<387.665] yes=1,no=2,missing=2
	1:[f5<135.067] yes=3,no=4,missing=4
		3:[f5<109.892] yes=5,no=6,missing=6
			5:[f2<6.5] yes=9,no=10,missing=9
				9:[f2<2.5] yes=11,no=12,missing=11
					11:[f5<20.825] yes=15,no=16,missing=16
						15:leaf=0.0167849
						16:leaf=-0.0260049
					12:[f4<1.5] yes=17,no=18,missing=17
						17:leaf=0.0120739
						18:leaf=0.0779179
				10:[f3<1.5] yes=13,no=14,missing=13
					13:[f5<52.2771] yes=19,no=20,missing=20
						19:leaf=-0.00436522
						20:leaf=0.0215208
					14:[f5<23.7] yes=21,no=22,missing=22
						21:leaf=0.0150451
						22:leaf=-0.0690549
			6:leaf=0.0525213
		4:[f1<-1.00136e-05] yes=7,no=8,missing=7
			7:leaf=-0.0693443
			8:leaf=0.000225817
	2:leaf=0.0429145
booster[49]:
0:[f5<6.9625] yes=1,no=2,missing=1
	1:leaf=-0.0425606
	2:[f1<-1.00136e-05] yes=3,no=4,missing=3
		3:[f2<49.5] yes=5,no=6,missing=5
			5:[f2<47.5] yes=9,no=10,missing=9
				9:[f2<45.25] yes=15,no=16,missing=15
					15:[f3<1.5] yes=25,no=26,missing=25
						25:leaf=0.00183248
						26:leaf=-0.0388329
					16:leaf=-0.0740657
				10:leaf=0.0613427
			6:[f5<29.85] yes=11,no=12,missing=12
				11:[f5<12.4375] yes=17,no=18,missing=18
					17:leaf=-0.0112143
					18:leaf=-0.0513773
				12:[f5<37.25] yes=19,no=20,missing=20
					19:leaf=0.0380464
					20:[f5<78.2437] yes=27,no=28,missing=28
						27:leaf=-0.0672507
						28:leaf=0.00192277
		4:[f2<3.5] yes=7,no=8,missing=7
			7:leaf=-0.0344182
			8:[f5<31.3312] yes=13,no=14,missing=14
				13:[f5<27.7354] yes=21,no=22,missing=22
					21:[f2<19.5] yes=29,no=30,missing=29
						29:leaf=0.0362102
						30:leaf=0.00237287
					22:leaf=-0.0516483
				14:[f4<1.5] yes=23,no=24,missing=23
					23:leaf=0.0707762
					24:[f5<57.25] yes=31,no=32,missing=32
						31:leaf=0.0206733
						32:leaf=-0.00491852
booster[50]:
0:[f5<254.948] yes=1,no=2,missing=1
	1:[f5<135.067] yes=3,no=4,missing=3
		3:[f5<116.637] yes=5,no=6,missing=6
			5:[f2<35.5] yes=9,no=10,missing=9
				9:[f2<30.75] yes=11,no=12,missing=11
					11:[f6<4.00001] yes=15,no=16,missing=16
						15:leaf=0.0156016
						16:leaf=-0.0101394
					12:[f6<4.00001] yes=17,no=18,missing=18
						17:leaf=-0.0333944
						18:leaf=0.0432273
				10:[f2<59.5] yes=13,no=14,missing=13
					13:[f0<1.5] yes=19,no=20,missing=19
						19:leaf=-0.00606145
						20:leaf=-0.0334611
					14:[f2<63.5] yes=21,no=22,missing=21
						21:leaf=0.0551254
						22:leaf=-0.0272923
			6:leaf=0.0489978
		4:[f2<27.5] yes=7,no=8,missing=7
			7:leaf=-0.0657807
			8:leaf=-0.00313933
	2:leaf=0.0460903
booster[51]:
0:[f5<6.9625] yes=1,no=2,missing=1
	1:leaf=-0.0421377
	2:[f1<-1.00136e-05] yes=3,no=4,missing=3
		3:[f2<49.5] yes=5,no=6,missing=5
			5:[f2<47.5] yes=9,no=10,missing=9
				9:[f2<45.25] yes=17,no=18,missing=17
					17:[f3<1.5] yes=31,no=32,missing=31
						31:leaf=0.00163827
						32:leaf=-0.036502
					18:leaf=-0.0713733
				10:leaf=0.0581797
			6:[f5<29.85] yes=11,no=12,missing=12
				11:[f5<12.4375] yes=19,no=20,missing=20
					19:leaf=-0.00966296
					20:leaf=-0.0489844
				12:[f5<37.25] yes=21,no=22,missing=22
					21:leaf=0.0352695
					22:[f5<78.2437] yes=33,no=34,missing=34
						33:leaf=-0.0648062
						34:leaf=0.000528117
		4:[f0<2.5] yes=7,no=8,missing=7
			7:[f3<1.5] yes=13,no=14,missing=14
				13:[f2<27.5] yes=23,no=24,missing=23
					23:[f2<23.5] yes=35,no=36,missing=35
						35:leaf=0.0138672
						36:leaf=-0.0421161
					24:leaf=0.0368447
				14:[f5<13.25] yes=25,no=26,missing=26
					25:[f5<12.825] yes=37,no=38,missing=38
						37:leaf=0.0196273
						38:leaf=-0.0164412
					26:[f2<46.5] yes=39,no=40,missing=39
						39:leaf=0.0741333
						40:leaf=0.0111544
			8:[f5<7.74375] yes=15,no=16,missing=16
				15:[f2<25.5] yes=27,no=28,missing=27
					27:leaf=0.0792363
					28:leaf=-0.0142889
				16:[f6<1.5] yes=29,no=30,missing=29
					29:[f4<3.5] yes=41,no=42,missing=42
						41:leaf=0.00866719
						42:leaf=-0.0245171
					30:[f5<7.76875] yes=43,no=44,missing=44
						43:leaf=-0.0188864
						44:leaf=0.0440178
booster[52]:
0:[f5<7.13335] yes=1,no=2,missing=2
	1:leaf=-0.0405741
	2:[f5<387.665] yes=3,no=4,missing=4
		3:[f5<135.067] yes=5,no=6,missing=6
			5:[f2<5.5] yes=7,no=8,missing=7
				7:[f2<2.5] yes=11,no=12,missing=11
					11:[f5<20.825] yes=15,no=16,missing=16
						15:leaf=0.0171445
						16:leaf=-0.0223794
					12:leaf=0.0610187
				8:[f5<109.892] yes=13,no=14,missing=14
					13:[f3<1.5] yes=17,no=18,missing=17
						17:leaf=2.94298e-05
						18:leaf=-0.033083
					14:leaf=0.0465337
			6:[f1<-1.00136e-05] yes=9,no=10,missing=9
				9:leaf=-0.0654396
				10:leaf=-0.00175518
		4:leaf=0.0405423
booster[53]:
0:[f5<6.9625] yes=1,no=2,missing=1
	1:leaf=-0.0404452
	2:[f1<-1.00136e-05] yes=3,no=4,missing=3
		3:[f2<3.5] yes=5,no=6,missing=5
			5:leaf=0.0394855
			6:[f3<2.5] yes=9,no=10,missing=9
				9:[f2<49.5] yes=13,no=14,missing=13
					13:[f2<47.5] yes=19,no=20,missing=19
						19:leaf=-0.00335843
						20:leaf=0.0541372
					14:[f5<29.85] yes=21,no=22,missing=22
						21:leaf=-0.0388201
						22:leaf=-0.00894544
				10:leaf=-0.0545595
		4:[f2<3.5] yes=7,no=8,missing=7
			7:leaf=-0.0329607
			8:[f5<31.3312] yes=11,no=12,missing=12
				11:[f5<27.7354] yes=15,no=16,missing=16
					15:[f2<47.5] yes=23,no=24,missing=23
						23:leaf=0.00482449
						24:leaf=0.0561375
					16:leaf=-0.049205
				12:[f4<1.5] yes=17,no=18,missing=17
					17:leaf=0.0680662
					18:[f5<48.2] yes=25,no=26,missing=26
						25:leaf=0.019908
						26:leaf=-0.00391574
booster[54]:
0:[f5<387.665] yes=1,no=2,missing=2
	1:[f5<135.067] yes=3,no=4,missing=4
		3:[f2<6.5] yes=5,no=6,missing=5
			5:[f3<2.5] yes=9,no=10,missing=9
				9:leaf=0.0537103
				10:leaf=-0.00820986
			6:[f5<109.892] yes=11,no=12,missing=12
				11:[f2<11.5] yes=13,no=14,missing=13
					13:leaf=-0.0402114
					14:[f5<7.13335] yes=15,no=16,missing=16
						15:leaf=-0.0378633
						16:leaf=-0.000404851
				12:leaf=0.0434481
		4:[f1<-1.00136e-05] yes=7,no=8,missing=7
			7:leaf=-0.0628121
			8:leaf=-0.00304042
	2:leaf=0.0397368
booster[55]:
0:[f5<6.9625] yes=1,no=2,missing=1
	1:leaf=-0.0388897
	2:[f5<7.18335] yes=3,no=4,missing=4
		3:leaf=0.0422634
		4:[f2<20.25] yes=5,no=6,missing=5
			5:[f5<12.7375] yes=7,no=8,missing=8
				7:[f5<7.9104] yes=11,no=12,missing=12
					11:[f6<4.00001] yes=19,no=20,missing=20
						19:leaf=0.0455729
						20:leaf=-0.0437829
					12:[f2<19.5] yes=21,no=22,missing=21
						21:leaf=0.0859375
						22:leaf=-0.0260015
				8:[f4<2.5] yes=13,no=14,missing=14
					13:[f3<2.5] yes=23,no=24,missing=23
						23:leaf=0.0436625
						24:leaf=-0.0325319
					14:[f1<-1.00136e-05] yes=25,no=26,missing=25
						25:leaf=-0.08951
						26:leaf=-0.0120953
			6:[f2<25.5] yes=9,no=10,missing=9
				9:[f5<15.4479] yes=15,no=16,missing=16
					15:[f5<7.7979] yes=27,no=28,missing=28
						27:leaf=0.00552727
						28:leaf=-0.0990353
					16:[f5<71.4] yes=29,no=30,missing=30
						29:leaf=0.0524885
						30:leaf=-0.0297729
				10:[f5<7.73125] yes=17,no=18,missing=18
					17:leaf=-0.0523801
					18:[f3<1.5] yes=31,no=32,missing=32
						31:leaf=-0.0165768
						32:leaf=0.0124002
booster[56]:
0:[f5<387.665] yes=1,no=2,missing=2
	1:[f5<135.067] yes=3,no=4,missing=4
		3:[f5<52.2771] yes=5,no=6,missing=6
			5:[f5<36.8771] yes=9,no=10,missing=10
				9:[f5<35.25] yes=13,no=14,missing=14
					13:[f5<31.8542] yes=21,no=22,missing=22
						21:leaf=0.000404455
						22:leaf=-0.0664255
					14:leaf=0.0871911
				10:[f3<3] yes=15,no=16,missing=16
					15:leaf=-0.0172285
					16:leaf=-0.0739762
			6:[f2<43] yes=11,no=12,missing=11
				11:[f5<65.8] yes=17,no=18,missing=18
					17:[f5<54.05] yes=23,no=24,missing=24
						23:leaf=0.0212567
						24:leaf=0.0701741
					18:[f5<82.6646] yes=25,no=26,missing=26
						25:leaf=-0.0512964
						26:leaf=0.0694459
				12:[f5<89.5521] yes=19,no=20,missing=20
					19:[f6<2.00001] yes=27,no=28,missing=28
						27:leaf=0.047853
						28:leaf=-0.0557438
					20:leaf=-0.0434292
		4:[f1<-1.00136e-05] yes=7,no=8,missing=7
			7:leaf=-0.0604793
			8:leaf=-0.00301434
	2:leaf=0.0386284
booster[57]:
0:[f5<6.9625] yes=1,no=2,missing=1
	1:leaf=-0.0381376
	2:[f2<36.25] yes=3,no=4,missing=3
		3:[f2<30.75] yes=5,no=6,missing=5
			5:[f6<4.00001] yes=9,no=10,missing=10
				9:[f5<7.76875] yes=17,no=18,missing=18
					17:[f2<20.5] yes=29,no=30,missing=29
						29:leaf=0.0379832
						30:leaf=-0.0155275
					18:[f5<14.1583] yes=31,no=32,missing=32
						31:leaf=0.073223
						32:leaf=0.00654579
				10:[f2<27.5] yes=19,no=20,missing=19
					19:[f2<26.5] yes=33,no=34,missing=33
						33:leaf=-0.0117664
						34:leaf=0.0928297
					20:[f5<8.08125] yes=35,no=36,missing=36
						35:leaf=-0.0805735
						36:leaf=-0.00203411
			6:[f5<12.9375] yes=11,no=12,missing=12
				11:[f2<32.5] yes=21,no=22,missing=21
					21:[f5<7.9104] yes=37,no=38,missing=38
						37:leaf=-0.0237804
						38:leaf=0.0407266
					22:leaf=-0.0625333
				12:[f3<2.5] yes=23,no=24,missing=24
					23:[f5<20.3875] yes=39,no=40,missing=40
						39:leaf=-0.0322457
						40:leaf=0.0158077
					24:leaf=0.0975903
		4:[f5<29.85] yes=7,no=8,missing=8
			7:[f2<38.5] yes=13,no=14,missing=13
				13:leaf=-0.0926319
				14:[f5<13.25] yes=25,no=26,missing=26
					25:[f2<45.25] yes=41,no=42,missing=41
						41:leaf=0.0501236
						42:leaf=-0.0095804
					26:[f5<26.775] yes=43,no=44,missing=44
						43:leaf=-0.0179419
						44:leaf=-0.0742367
			8:[f5<31.8542] yes=15,no=16,missing=16
				15:leaf=0.0581515
				16:[f3<4.00001] yes=27,no=28,missing=28
					27:[f5<79.425] yes=45,no=46,missing=46
						45:leaf=0.0324562
						46:leaf=-0.0129841
					28:[f2<55] yes=47,no=48,missing=47
						47:leaf=-0.055762
						48:leaf=-0.0079011
booster[58]:
0:[f5<6.9625] yes=1,no=2,missing=1
	1:leaf=-0.036426
	2:[f5<7.18335] yes=3,no=4,missing=4
		3:leaf=0.0397828
		4:[f1<-1.00136e-05] yes=5,no=6,missing=5
			5:[f5<7.74585] yes=7,no=8,missing=8
				7:[f5<7.2396] yes=11,no=12,missing=12
					11:[f2<22.75] yes=17,no=18,missing=17
						17:leaf=0.0282364
						18:leaf=-0.0374706
					12:leaf=-0.0664071
				8:[f2<9.5] yes=13,no=14,missing=13
					13:[f3<2.5] yes=19,no=20,missing=19
						19:leaf=0.0605693
						20:leaf=-0.0126907
					14:[f2<24.75] yes=21,no=22,missing=21
						21:leaf=-0.024477
						22:leaf=0.00115049
			6:[f2<3.5] yes=9,no=10,missing=9
				9:leaf=-0.0352583
				10:[f5<31.3312] yes=15,no=16,missing=16
					15:[f5<7.74375] yes=23,no=24,missing=24
						23:leaf=0.0432111
						24:leaf=0.00029316
					16:[f4<1.5] yes=25,no=26,missing=25
						25:leaf=0.066292
						26:leaf=0.0116513
booster[59]:
0:[f5<387.665] yes=1,no=2,missing=2
	1:[f5<135.067] yes=3,no=4,missing=4
		3:[f2<5.5] yes=5,no=6,missing=5
			5:[f4<1.5] yes=9,no=10,missing=10
				9:[f5<20.1667] yes=13,no=14,missing=14
					13:leaf=0.0207402
					14:leaf=-0.026554
				10:leaf=0.0622196
			6:[f5<84.9875] yes=11,no=12,missing=12
				11:[f5<77.0083] yes=15,no=16,missing=16
					15:[f5<52.2771] yes=19,no=20,missing=20
						19:leaf=-0.00393896
						20:leaf=0.0244437
					16:leaf=-0.0388674
				12:[f2<42.5] yes=17,no=18,missing=17
					17:leaf=0.0654373
					18:leaf=-0.0199562
		4:[f1<-1.00136e-05] yes=7,no=8,missing=7
			7:leaf=-0.058008
			8:leaf=-0.00406586
	2:leaf=0.0375701
booster[60]:
0:[f5<7.13335] yes=1,no=2,missing=2
	1:leaf=-0.0358191
	2:[f2<36.25] yes=3,no=4,missing=3
		3:[f2<30.75] yes=5,no=6,missing=5
			5:[f6<4.00001] yes=9,no=10,missing=10
				9:[f5<23.625] yes=17,no=18,missing=18
					17:[f5<15.1479] yes=29,no=30,missing=30
						29:leaf=0.00334946
						30:leaf=0.0714625
					18:[f2<27.5] yes=31,no=32,missing=31
						31:leaf=0.0215763
						32:leaf=-0.0435963
				10:[f2<27.5] yes=19,no=20,missing=19
					19:[f5<8.10415] yes=33,no=34,missing=33
						33:leaf=0.034005
						34:leaf=-0.016366
					20:[f5<8.08125] yes=35,no=36,missing=35
						35:leaf=-0.0795776
						36:leaf=-0.00200408
			6:[f5<12.9375] yes=11,no=12,missing=11
				11:[f2<32.5] yes=21,no=22,missing=21
					21:[f5<7.9104] yes=37,no=38,missing=38
						37:leaf=-0.0225712
						38:leaf=0.0379559
					22:leaf=-0.0602011
				12:[f3<2.5] yes=23,no=24,missing=24
					23:[f5<20.3875] yes=39,no=40,missing=40
						39:leaf=-0.0303372
						40:leaf=0.0140722
					24:leaf=0.0905384
		4:[f5<29.85] yes=7,no=8,missing=7
			7:[f2<38.5] yes=13,no=14,missing=13
				13:leaf=-0.0893355
				14:[f5<13.25] yes=25,no=26,missing=26
					25:[f2<45.25] yes=41,no=42,missing=41
						41:leaf=0.0479769
						42:leaf=-0.00801476
					26:[f5<26.775] yes=43,no=44,missing=44
						43:leaf=-0.016236
						44:leaf=-0.0723809
			8:[f5<31.8542] yes=15,no=16,missing=16
				15:leaf=0.0541777
				16:[f3<4.00001] yes=27,no=28,missing=28
					27:[f5<52.8271] yes=45,no=46,missing=46
						45:leaf=0.0416167
						46:leaf=-0.00349126
					28:[f2<55] yes=47,no=48,missing=47
						47:leaf=-0.0535591
						48:leaf=-0.00780406
booster[61]:
0:[f5<387.665] yes=1,no=2,missing=2
	1:[f5<135.067] yes=3,no=4,missing=4
		3:[f2<5.5] yes=5,no=6,missing=5
			5:[f2<2.5] yes=9,no=10,missing=9
				9:leaf=-0.00641123
				10:leaf=0.0576314
			6:[f5<109.892] yes=11,no=12,missing=12
				11:[f5<13.9312] yes=13,no=14,missing=14
					13:[f5<9.2875] yes=15,no=16,missing=16
						15:leaf=-0.00509287
						16:leaf=0.0254689
					14:[f5<15.1729] yes=17,no=18,missing=18
						17:leaf=-0.0791928
						18:leaf=-0.00115922
				12:leaf=0.0389257
		4:[f1<-1.00136e-05] yes=7,no=8,missing=7
			7:leaf=-0.0554372
			8:leaf=-0.00331539
	2:leaf=0.0354715
booster[62]:
0:[f5<6.9625] yes=1,no=2,missing=1
	1:leaf=-0.0347761
	2:[f5<7.18335] yes=3,no=4,missing=4
		3:leaf=0.0394267
		4:[f1<-1.00136e-05] yes=5,no=6,missing=5
			5:[f5<7.74585] yes=7,no=8,missing=8
				7:[f5<7.2396] yes=11,no=12,missing=12
					11:[f2<22.75] yes=17,no=18,missing=17
						17:leaf=0.0269629
						18:leaf=-0.0355119
					12:leaf=-0.064619
				8:[f5<8.1354] yes=13,no=14,missing=14
					13:[f2<19.5] yes=19,no=20,missing=19
						19:leaf=0.0571153
						20:leaf=0.00340704
					14:[f5<9.49165] yes=21,no=22,missing=22
						21:leaf=-0.0500683
						22:leaf=-0.00258755
			6:[f2<3.5] yes=9,no=10,missing=9
				9:leaf=-0.0340886
				10:[f5<31.3312] yes=15,no=16,missing=16
					15:[f5<7.74375] yes=23,no=24,missing=24
						23:leaf=0.0410325
						24:leaf=0.000621807
					16:[f4<1.5] yes=25,no=26,missing=25
						25:leaf=0.0647608
						26:leaf=0.0093767
booster[63]:
0:[f5<387.665] yes=1,no=2,missing=2
	1:[f5<135.067] yes=3,no=4,missing=4
		3:[f2<5.5] yes=5,no=6,missing=5
			5:[f4<1.5] yes=9,no=10,missing=10
				9:[f5<20.1667] yes=13,no=14,missing=14
					13:leaf=0.0206089
					14:leaf=-0.025218
				10:leaf=0.0576711
			6:[f5<109.892] yes=11,no=12,missing=12
				11:[f3<1.5] yes=15,no=16,missing=15
					15:[f5<52.2771] yes=17,no=18,missing=18
						17:leaf=-0.00301066
						18:leaf=0.0157772
					16:[f5<23.7] yes=19,no=20,missing=20
						19:leaf=0.0188062
						20:leaf=-0.0634049
				12:leaf=0.0367507
		4:[f1<-1.00136e-05] yes=7,no=8,missing=7
			7:leaf=-0.0531852
			8:leaf=-0.00463619
	2:leaf=0.0347964
booster[64]:
0:[f2<36.25] yes=1,no=2,missing=1
	1:[f2<30.75] yes=3,no=4,missing=3
		3:[f5<134.642] yes=7,no=8,missing=7
			7:[f2<29.5] yes=15,no=16,missing=15
				15:[f6<4.00001] yes=25,no=26,missing=26
					25:[f5<7.73125] yes=33,no=34,missing=34
						33:leaf=-0.0217972
						34:leaf=0.028384
					26:[f2<27.5] yes=35,no=36,missing=35
						35:leaf=0.00565606
						36:leaf=-0.0285513
				16:leaf=-0.0400015
			8:leaf=-0.0484305
		4:[f5<12.9375] yes=9,no=10,missing=9
			9:[f2<32.5] yes=17,no=18,missing=17
				17:leaf=0.0155246
				18:leaf=-0.0600426
			10:[f3<2.5] yes=19,no=20,missing=20
				19:[f5<20.3875] yes=27,no=28,missing=28
					27:leaf=-0.0283202
					28:[f2<32.25] yes=37,no=38,missing=37
						37:leaf=0.0439924
						38:leaf=-0.0245425
				20:leaf=0.0833872
	2:[f2<47.5] yes=5,no=6,missing=5
		5:[f5<8.2271] yes=11,no=12,missing=12
			11:leaf=0.0266006
			12:[f2<42.5] yes=21,no=22,missing=21
				21:[f2<41.5] yes=29,no=30,missing=29
					29:[f5<30.35] yes=39,no=40,missing=39
						39:leaf=-0.077198
						40:leaf=0.0327574
					30:leaf=0.0474356
				22:leaf=-0.0673744
		6:[f2<49.5] yes=13,no=14,missing=13
			13:leaf=0.0449837
			14:[f1<-1.00136e-05] yes=23,no=24,missing=23
				23:[f5<78.2437] yes=31,no=32,missing=32
					31:[f2<61.5] yes=41,no=42,missing=41
						41:leaf=-0.0387294
						42:leaf=-0.00174242
					32:leaf=0.00329729
				24:leaf=0.0310369
booster[65]:
0:[f5<7.13335] yes=1,no=2,missing=2
	1:leaf=-0.0337949
	2:[f5<7.18335] yes=3,no=4,missing=3
		3:leaf=0.0396558
		4:[f1<-1.00136e-05] yes=5,no=6,missing=5
			5:[f5<7.74585] yes=7,no=8,missing=8
				7:[f5<7.2396] yes=11,no=12,missing=12
					11:[f2<22.75] yes=17,no=18,missing=17
						17:leaf=0.0268414
						18:leaf=-0.0327226
					12:leaf=-0.0629086
				8:[f5<36.8771] yes=13,no=14,missing=14
					13:[f5<35.25] yes=19,no=20,missing=20
						19:leaf=-0.000619308
						20:leaf=0.0864506
					14:[f5<51.9313] yes=21,no=22,missing=22
						21:leaf=-0.076713
						22:leaf=-0.000229759
			6:[f2<3.5] yes=9,no=10,missing=9
				9:leaf=-0.0328453
				10:[f2<19.5] yes=15,no=16,missing=15
					15:[f5<13.9354] yes=23,no=24,missing=24
						23:leaf=0.0671495
						24:leaf=-0.00402697
					16:[f5<14.8729] yes=25,no=26,missing=26
						25:leaf=-0.0128788
						26:leaf=0.0231715
booster[66]:
0:[f4<3.5] yes=1,no=2,missing=1
	1:[f5<254.948] yes=3,no=4,missing=4
		3:[f5<135.067] yes=5,no=6,missing=6
			5:[f2<5.5] yes=7,no=8,missing=7
				7:[f2<2.5] yes=11,no=12,missing=11
					11:leaf=-0.00408038
					12:leaf=0.0527811
				8:[f2<26.5] yes=13,no=14,missing=13
					13:[f5<54.05] yes=15,no=16,missing=16
						15:leaf=-0.0143671
						16:leaf=0.0360705
					14:[f2<27.5] yes=17,no=18,missing=17
						17:leaf=0.0850861
						18:leaf=-0.00222419
			6:[f2<26] yes=9,no=10,missing=9
				9:leaf=-0.0473518
				10:leaf=-0.00970102
		4:leaf=0.0332564
	2:leaf=-0.0352452
booster[67]:
0:[f5<6.9625] yes=1,no=2,missing=1
	1:leaf=-0.0342065
	2:[f5<7.18335] yes=3,no=4,missing=4
		3:leaf=0.0383683
		4:[f4<3.5] yes=5,no=6,missing=5
			5:[f1<-1.00136e-05] yes=7,no=8,missing=7
				7:[f5<7.74585] yes=9,no=10,missing=10
					9:[f5<7.2396] yes=13,no=14,missing=14
						13:leaf=-0.00733249
						14:leaf=-0.0609519
					10:[f5<36.8771] yes=15,no=16,missing=16
						15:leaf=0.00396137
						16:leaf=-0.0142063
				8:[f2<3.5] yes=11,no=12,missing=11
					11:leaf=-0.0305958
					12:[f5<15.3729] yes=17,no=18,missing=18
						17:leaf=-0.000274513
						18:leaf=0.0279621
			6:leaf=-0.0336304
booster[68]:
0:[f5<7.13335] yes=1,no=2,missing=2
	1:leaf=-0.032636
	2:[f5<7.2271] yes=3,no=4,missing=4
		3:leaf=0.0362462
		4:[f5<7.78125] yes=5,no=6,missing=6
			5:[f2<29.5] yes=7,no=8,missing=7
				7:[f2<19.5] yes=11,no=12,missing=11
					11:leaf=-0.032128
					12:[f5<7.6396] yes=17,no=18,missing=18
						17:leaf=-0.0121136
						18:leaf=0.0202544
				8:leaf=-0.0817288
			6:[f5<7.88335] yes=9,no=10,missing=10
				9:[f2<25] yes=13,no=14,missing=13
					13:leaf=0.00302513
					14:leaf=0.050151
				10:[f5<7.9104] yes=15,no=16,missing=16
					15:leaf=-0.0468613
					16:[f5<8.125] yes=19,no=20,missing=20
						19:leaf=0.0248752
						20:leaf=-0.00184167
booster[69]:
0:[f5<6.9625] yes=1,no=2,missing=1
	1:leaf=-0.0320045
	2:[f5<7.18335] yes=3,no=4,missing=4
		3:leaf=0.0372685
		4:[f2<20.25] yes=5,no=6,missing=5
			5:[f5<12.7375] yes=7,no=8,missing=8
				7:[f5<7.9104] yes=11,no=12,missing=12
					11:[f5<7.7625] yes=19,no=20,missing=20
						19:leaf=0.0370853
						20:leaf=-0.0475017
					12:[f2<19.5] yes=21,no=22,missing=21
						21:leaf=0.0784406
						22:leaf=-0.023416
				8:[f4<2.5] yes=13,no=14,missing=14
					13:[f3<2.5] yes=23,no=24,missing=23
						23:leaf=0.0387669
						24:leaf=-0.0295489
					14:[f1<-1.00136e-05] yes=25,no=26,missing=25
						25:leaf=-0.0882846
						26:leaf=-0.0106649
			6:[f2<25.5] yes=9,no=10,missing=9
				9:[f5<13.3959] yes=15,no=16,missing=16
					15:[f5<7.7979] yes=27,no=28,missing=28
						27:leaf=0.00924872
						28:leaf=-0.0986633
					16:[f1<-1.00136e-05] yes=29,no=30,missing=29
						29:leaf=-0.021449
						30:leaf=0.0523732
				10:[f3<1.5] yes=17,no=18,missing=18
					17:[f5<14.8729] yes=31,no=32,missing=32
						31:leaf=-0.0746954
						32:leaf=-0.00580037
					18:[f2<27.5] yes=33,no=34,missing=33
						33:leaf=0.0768723
						34:leaf=0.000436578
booster[70]:
0:[f5<387.665] yes=1,no=2,missing=2
	1:[f5<135.067] yes=3,no=4,missing=4
		3:[f2<5.5] yes=5,no=6,missing=5
			5:[f4<1.5] yes=9,no=10,missing=10
				9:leaf=-0.00331818
				10:leaf=0.0538431
			6:[f0<1.5] yes=11,no=12,missing=11
				11:[f2<27.5] yes=13,no=14,missing=13
					13:[f2<21.5] yes=17,no=18,missing=17
						17:leaf=-0.0092478
						18:leaf=0.0779247
					14:[f5<37] yes=19,no=20,missing=20
						19:leaf=0.0142643
						20:leaf=-0.0177164
				12:[f5<13.9312] yes=15,no=16,missing=16
					15:[f5<9.2875] yes=21,no=22,missing=22
						21:leaf=-0.00437667
						22:leaf=0.0239788
					16:[f5<15.1729] yes=23,no=24,missing=24
						23:leaf=-0.0735227
						24:leaf=-0.00906238
		4:[f1<-1.00136e-05] yes=7,no=8,missing=7
			7:leaf=-0.0486475
			8:leaf=-0.00467481
	2:leaf=0.0314839
booster[71]:
0:[f5<7.13335] yes=1,no=2,missing=2
	1:leaf=-0.0314239
	2:[f5<7.2396] yes=3,no=4,missing=4
		3:[f2<24.5] yes=5,no=6,missing=5
			5:leaf=0.0499124
			6:leaf=-0.00716587
		4:[f5<7.6396] yes=7,no=8,missing=8
			7:leaf=-0.0374579
			8:[f4<3.5] yes=9,no=10,missing=9
				9:[f5<254.948] yes=11,no=12,missing=12
					11:[f5<135.067] yes=13,no=14,missing=14
						13:leaf=0.0015252
						14:leaf=-0.0358744
					12:leaf=0.0321972
				10:leaf=-0.0312534
booster[72]:
0:[f5<6.9625] yes=1,no=2,missing=1
	1:leaf=-0.0316976
	2:[f5<7.18335] yes=3,no=4,missing=4
		3:leaf=0.0363039
		4:[f1<-1.00136e-05] yes=5,no=6,missing=5
			5:[f5<7.74585] yes=7,no=8,missing=8
				7:[f5<7.2396] yes=11,no=12,missing=12
					11:[f2<22.75] yes=19,no=20,missing=19
						19:leaf=0.0230935
						20:leaf=-0.0308814
					12:leaf=-0.0585893
				8:[f2<3.5] yes=13,no=14,missing=13
					13:leaf=0.0396432
					14:[f2<24.75] yes=21,no=22,missing=21
						21:leaf=-0.0202144
						22:leaf=0.00136993
			6:[f5<7.74375] yes=9,no=10,missing=10
				9:[f2<25.5] yes=15,no=16,missing=15
					15:leaf=0.0727245
					16:leaf=-0.0116311
				10:[f0<2.5] yes=17,no=18,missing=17
					17:[f3<1.5] yes=23,no=24,missing=24
						23:leaf=0.000619284
						24:leaf=0.0339005
					18:[f2<25.5] yes=25,no=26,missing=25
						25:leaf=-0.0186147
						26:leaf=0.00392631
booster[73]:
0:[f2<36.25] yes=1,no=2,missing=1
	1:[f2<30.75] yes=3,no=4,missing=3
		3:[f5<65.8] yes=7,no=8,missing=7
			7:[f5<29.4125] yes=15,no=16,missing=16
				15:[f5<19.7333] yes=27,no=28,missing=28
					27:[f5<15.1729] yes=43,no=44,missing=44
						43:leaf=-0.00223923
						44:leaf=0.0294405
					28:[f5<21.8521] yes=45,no=46,missing=46
						45:leaf=-0.0762649
						46:leaf=-0.00997965
				16:[f5<39.5] yes=29,no=30,missing=30
					29:[f5<31.3312] yes=47,no=48,missing=48
						47:leaf=0.0206387
						48:leaf=0.0692068
					30:[f5<52.55] yes=49,no=50,missing=50
						49:leaf=-0.0548064
						50:leaf=0.031832
			8:[f2<27.5] yes=17,no=18,missing=17
				17:[f5<127.817] yes=31,no=32,missing=32
					31:leaf=0.0143015
					32:leaf=-0.0393058
				18:leaf=-0.056644
		4:[f5<12.9375] yes=9,no=10,missing=9
			9:[f2<32.5] yes=19,no=20,missing=19
				19:leaf=0.0139725
				20:leaf=-0.0582878
			10:[f3<2.5] yes=21,no=22,missing=22
